svm_type c_svc
kernel_type rbf
gamma 0.045454545454545456
nr_class 2
total_sv 9597
rho 2.5012093142401155
label 1 -1
nr_sv 4790 4807
SV
1 8:1 11:0.0774074 12:0.19859 13:0.507992 14:0.504776 15:0.51842 16:0.501396 17:0.495302 18:0.468071 19:0.481542 20:0.518797 21:0.507789 22:0.504797 
1 9:1 11:0.0764958 12:0.203397 13:0.502884 14:0.526343 15:0.515324 16:0.524138 17:0.521486 18:0.450479 19:0.491777 20:0.519451 21:0.520319 22:0.520218 
1 9:1 11:0.0747567 12:0.204982 13:0.492185 14:0.514319 15:0.508025 16:0.51172 17:0.521348 18:0.455709 19:0.500131 20:0.513914 21:0.518393 22:0.518166 
1 5:1 11:0.0728921 12:0.207177 13:0.500131 14:0.513914 15:0.518393 16:0.518166 17:0.502023 18:0.472002 19:0.502719 20:0.519871 21:0.529876 22:0.51964 
1 9:1 11:0.0806194 12:0.20181 13:0.517779 14:0.529517 15:0.502674 16:0.511986 17:0.512885 18:0.448856 19:0.499243 20:0.519583 21:0.514305 22:0.522493 
1 8:1 11:0.0834351 12:0.19481 13:0.516787 14:0.500211 15:0.519215 16:0.501703 17:0.499206 18:0.47384 19:0.493449 20:0.495362 21:0.46413 22:0.455717 
1 1:1 11:0.0770357 12:0.194998 13:0.501703 14:0.499206 15:0.47384 16:0.493449 17:0.495362 18:0.46413 19:0.455717 20:0.508586 21:0.501073 22:0.533334 
1 2:1 11:0.0720986 12:0.194998 13:0.499206 14:0.47384 15:0.493449 16:0.495362 17:0.46413 18:0.455717 19:0.508586 20:0.501073 21:0.533334 22:0.509918 
1 9:1 11:0.0720538 12:0.20419 13:0.501073 14:0.533334 15:0.509918 16:0.51295 17:0.529478 18:0.45552 19:0.505298 20:0.536809 21:0.519925 22:0.4696 
1 3:1 11:0.0722807 12:0.20657 13:0.529478 14:0.45552 15:0.505298 16:0.536809 17:0.519925 18:0.4696 19:0.50415 20:0.529418 21:0.519347 22:0.51958 
1 2:1 11:0.0773587 12:0.205589 13:0.51958 14:0.533946 15:0.5171 16:0.512143 17:0.512372 18:0.470953 19:0.519111 20:0.499686 21:0.466281 22:0.489978 
1 5:1 11:0.0738417 12:0.206196 13:0.512143 14:0.512372 15:0.470953 16:0.519111 17:0.499686 18:0.466281 19:0.489978 20:0.522243 21:0.530075 22:0.516369 
1 3:1 11:0.0768609 12:0.205403 13:0.530075 14:0.516369 15:0.521054 16:0.521655 17:0.523396 18:0.465506 19:0.502234 20:0.537703 21:0.51746 22:0.515334 
1 1:1 11:0.0786614 12:0.204609 13:0.51746 14:0.515334 15:0.523814 16:0.511095 17:0.509245 18:0.46086 19:0.505471 20:0.533847 21:0.501997 22:0.528701 
1 10:1 11:0.0836172 12:0.196024 13:0.522399 14:0.498612 15:0.50884 16:0.509777 17:0.496937 18:0.468728 19:0.491581 20:0.468912 21:0.510414 22:0.495307 
1 2:1 11:0.0786267 12:0.197611 13:0.50884 14:0.509777 15:0.496937 16:0.468728 17:0.491581 18:0.468912 19:0.510414 20:0.495307 21:0.527215 22:0.510742 
1 6:1 11:0.0843607 12:0.193831 13:0.512066 14:0.510021 15:0.508282 16:0.491162 17:0.510111 18:0.462636 19:0.485821 20:0.511576 21:0.508992 22:0.513182 
1 3:1 11:0.0802878 12:0.196631 13:0.511576 14:0.508992 15:0.513182 16:0.510943 17:0.503327 18:0.472919 19:0.494538 20:0.529164 21:0.521398 22:0.498691 
1 8:1 11:0.0778392 12:0.199383 13:0.472919 14:0.494538 15:0.529164 16:0.521398 17:0.498691 18:0.466546 19:0.483812 20:0.524512 21:0.516999 22:0.518475 
1 6:1 11:0.0829052 12:0.197423 13:0.506121 14:0.515813 15:0.516395 16:0.493886 17:0.513354 18:0.462857 19:0.492044 20:0.518934 21:0.499289 22:0.497135 
1 1:1 11:0.0772352 12:0.199804 13:0.462857 14:0.492044 15:0.518934 16:0.499289 17:0.497135 18:0.468105 19:0.503339 20:0.52378 21:0.503517 22:0.516899 
1 6:1 11:0.0752679 12:0.20279 13:0.468105 14:0.503339 15:0.52378 16:0.503517 17:0.516899 18:0.468338 19:0.50315 20:0.532126 21:0.517118 22:0.523697 
1 7:1 11:0.082083 12:0.201016 13:0.517973 14:0.523955 15:0.511156 16:0.525391 17:0.517453 18:0.456914 19:0.500857 20:0.507888 21:0.510625 22:0.520838 
1 3:1 11:0.0796538 12:0.200597 13:0.500857 14:0.507888 15:0.510625 16:0.520838 17:0.506267 18:0.471145 19:0.493698 20:0.527223 21:0.515799 22:0.520837 
1 6:1 11:0.0876314 12:0.191032 13:0.510693 14:0.512856 15:0.519476 16:0.4902 17:0.512927 18:0.46431 19:0.495271 20:0.514721 21:0.493696 22:0.493331 
1 10:1 11:0.0824774 12:0.194998 13:0.525041 14:0.521142 15:0.502324 16:0.509739 17:0.497304 18:0.470811 19:0.498414 20:0.510178 21:0.520297 22:0.505049 
1 10:1 11:0.0821304 12:0.196631 13:0.521489 14:0.510371 15:0.512809 16:0.522382 17:0.498862 18:0.46967 19:0.500948 20:0.516277 21:0.521188 22:0.45607 
1 4:1 11:0.0789037 12:0.198403 13:0.498862 14:0.46967 15:0.500948 16:0.516277 17:0.521188 18:0.45607 19:0.505955 20:0.51298 21:0.512691 22:0.517082 
1 9:1 11:0.0770671 12:0.201391 13:0.45607 14:0.505955 15:0.51298 16:0.512691 17:0.517082 18:0.468391 19:0.517511 20:0.518944 21:0.522085 22:0.528605 
1 5:1 11:0.0794923 12:0.20279 13:0.517511 14:0.518944 15:0.522085 16:0.528605 17:0.513094 18:0.46965 19:0.500177 20:0.513017 21:0.527858 22:0.520329 
1 1:1 11:0.0853157 12:0.194018 13:0.506559 14:0.506874 15:0.525637 16:0.505964 17:0.502308 18:0.454219 19:0.45286 20:0.510882 21:0.50372 22:0.525319 
1 2:1 11:0.0803458 12:0.194018 13:0.506874 14:0.525637 15:0.505964 16:0.502308 17:0.454219 18:0.45286 19:0.510882 20:0.50372 21:0.525319 22:0.505369 
1 8:1 11:0.085261 12:0.193831 13:0.510281 14:0.504497 15:0.520827 16:0.505059 17:0.500895 18:0.467573 19:0.485574 20:0.516644 21:0.518836 22:0.518017 
1 7:1 11:0.0822705 12:0.195417 13:0.518017 14:0.515377 15:0.49452 16:0.51873 17:0.495135 18:0.47016 19:0.517439 20:0.505225 21:0.51588 22:0.512376 
1 4:1 11:0.0804413 12:0.19579 13:0.505225 14:0.51588 15:0.512376 16:0.511346 17:0.510859 18:0.458335 19:0.500292 20:0.469341 21:0.504091 22:0.518196 
1 6:1 11:0.0762242 12:0.198217 13:0.512376 14:0.511346 15:0.510859 16:0.458335 17:0.500292 18:0.469341 19:0.504091 20:0.518196 21:0.463727 22:0.50948 
1 9:1 11:0.0727759 12:0.200784 13:0.458335 14:0.500292 15:0.469341 16:0.504091 17:0.518196 18:0.463727 19:0.50948 20:0.523508 21:0.524949 22:0.532218 
1 5:1 11:0.0762035 12:0.205403 13:0.50948 14:0.523508 15:0.524949 16:0.532218 17:0.512883 18:0.476755 19:0.516931 20:0.526064 21:0.530425 22:0.517128 
1 7:1 11:0.0838982 12:0.199383 13:0.519046 14:0.519219 15:0.507907 16:0.535695 17:0.508575 18:0.461815 19:0.509684 20:0.506996 21:0.514659 22:0.518221 
1 5:1 11:0.0826536 12:0.196397 13:0.514659 14:0.518221 15:0.514463 16:0.516304 17:0.492622 18:0.472047 19:0.503124 20:0.518673 21:0.465793 22:0.444898 
1 8:1 11:0.0794836 12:0.19803 13:0.516304 14:0.492622 15:0.472047 16:0.503124 17:0.518673 18:0.465793 19:0.444898 20:0.503756 21:0.523938 22:0.522695 
1 9:1 11:0.0735681 12:0.199383 13:0.492622 14:0.472047 15:0.503124 16:0.518673 17:0.465793 18:0.444898 19:0.503756 20:0.523938 21:0.522695 22:0.530977 
1 4:1 11:0.0874626 12:0.188838 13:0.510809 14:0.508726 15:0.496497 16:0.498644 17:0.514198 18:0.455866 19:0.496533 20:0.4965 21:0.471253 22:0.507503 
1 7:1 11:0.0822558 12:0.191032 13:0.498644 14:0.514198 15:0.455866 16:0.496533 17:0.4965 18:0.471253 19:0.507503 20:0.504756 21:0.512366 22:0.513008 
1 7:1 11:0.0807362 12:0.194204 13:0.505165 14:0.521491 15:0.520354 16:0.520436 17:0.488977 18:0.462624 19:0.500702 20:0.511367 21:0.522606 22:0.518168 
1 3:1 11:0.0850194 12:0.190238 13:0.52248 14:0.494311 15:0.5093 16:0.498031 17:0.503178 18:0.470926 19:0.482436 20:0.521219 21:0.507623 22:0.465299 
1 7:1 11:0.0802017 12:0.192804 13:0.503178 14:0.470926 15:0.482436 16:0.521219 17:0.507623 18:0.465299 19:0.493796 20:0.505854 21:0.510631 22:0.468069 
1 1:1 11:0.0754154 12:0.195417 13:0.507623 14:0.465299 15:0.493796 16:0.505854 17:0.510631 18:0.468069 19:0.505214 20:0.534243 21:0.509858 22:0.519655 
1 10:1 11:0.084041 12:0.192617 13:0.514523 14:0.50161 15:0.514885 16:0.513849 17:0.496302 18:0.463664 19:0.449842 20:0.498593 21:0.523953 22:0.490645 
1 1:1 11:0.0787488 12:0.193831 13:0.50161 14:0.514885 15:0.513849 16:0.496302 17:0.463664 18:0.449842 19:0.498593 20:0.523953 21:0.490645 22:0.521563 
1 2:1 11:0.0815858 12:0.195604 13:0.508562 14:0.51038 15:0.507454 16:0.514449 17:0.509559 18:0.462507 19:0.505069 20:0.512302 21:0.52004 22:0.4981 
1 9:1 11:0.0784058 12:0.19803 13:0.512302 14:0.52004 15:0.4981 16:0.515467 17:0.511374 18:0.454691 19:0.497512 20:0.525369 21:0.529419 22:0.515312 
1 7:1 11:0.0837888 12:0.196024 13:0.519952 14:0.518264 15:0.507481 16:0.51673 17:0.502863 18:0.460343 19:0.502685 20:0.50784 21:0.510451 22:0.508818 
1 4:1 11:0.0805334 12:0.196211 13:0.50784 14:0.510451 15:0.508818 16:0.515282 17:0.513785 18:0.456946 19:0.50089 20:0.515134 21:0.522211 22:0.503821 
1 1:1 11:0.077996 12:0.19901 13:0.515134 14:0.522211 15:0.503821 16:0.499039 17:0.512647 18:0.470321 19:0.50785 20:0.521223 21:0.524147 22:0.523236 
1 10:1 11:0.0827737 12:0.193224 13:0.5107 14:0.502985 15:0.507624 16:0.512798 17:0.485087 18:0.472201 19:0.497485 20:0.506542 21:0.516333 22:0.460677 
1 4:1 11:0.078305 12:0.194204 13:0.485087 14:0.472201 15:0.497485 16:0.506542 17:0.516333 18:0.460677 19:0.506599 20:0.502328 21:0.508784 22:0.511736 
1 9:1 11:0.0744363 12:0.200411 13:0.460677 14:0.506599 15:0.502328 16:0.508784 17:0.511736 18:0.466388 19:0.508538 20:0.467038 21:0.505329 22:0.533383 
1 1:1 11:0.0706504 12:0.202603 13:0.502328 14:0.508784 15:0.511736 16:0.466388 17:0.508538 18:0.467038 19:0.505329 20:0.533383 21:0.527005 22:0.526303 
1 7:1 11:0.0727946 12:0.207363 13:0.505329 14:0.533383 15:0.527005 16:0.526303 17:0.506118 18:0.467778 19:0.520477 20:0.525287 21:0.529573 22:0.528945 
1 9:1 11:0.0817106 12:0.201203 13:0.503996 14:0.526261 15:0.522693 16:0.523717 17:0.510286 18:0.450818 19:0.501888 20:0.519999 21:0.516506 22:0.518749 
1 8:1 11:0.0832435 12:0.197423 13:0.518749 14:0.507932 15:0.524179 16:0.51126 17:0.509023 18:0.473132 19:0.504565 20:0.517478 21:0.514838 22:0.505485 
1 3:1 11:0.0810939 12:0.197004 13:0.473132 14:0.504565 15:0.517478 16:0.514838 17:0.505485 18:0.47078 19:0.483645 20:0.52351 21:0.507414 22:0.520228 
1 7:1 11:0.0829018 12:0.194998 13:0.51634 14:0.52783 15:0.499567 16:0.517665 17:0.494231 18:0.462729 19:0.506611 20:0.50624 21:0.510228 22:0.508857 
1 5:1 11:0.0839883 12:0.192617 13:0.508845 14:0.513991 15:0.509644 16:0.514546 17:0.484109 18:0.470061 19:0.494224 20:0.516057 21:0.508575 22:0.458017 
1 9:1 11:0.0791619 12:0.19523 13:0.484109 14:0.470061 15:0.494224 16:0.516057 17:0.508575 18:0.458017 19:0.497498 20:0.514641 21:0.512562 22:0.467738 
1 3:1 11:0.075691 12:0.198217 13:0.508575 14:0.458017 15:0.497498 16:0.514641 17:0.512562 18:0.467738 19:0.455606 20:0.524496 21:0.516683 22:0.517275 
1 4:1 11:0.0706944 12:0.198217 13:0.458017 14:0.497498 15:0.514641 16:0.512562 17:0.467738 18:0.455606 19:0.524496 20:0.516683 21:0.517275 22:0.514059 
1 9:1 11:0.0696186 12:0.204377 13:0.455606 14:0.524496 15:0.516683 16:0.517275 17:0.514059 18:0.453213 19:0.461804 20:0.516668 21:0.520611 22:0.4829 
1 10:1 11:0.0650619 12:0.208762 13:0.524496 14:0.516683 15:0.517275 16:0.514059 17:0.453213 18:0.461804 19:0.516668 20:0.520611 21:0.4829 22:0.520164 
1 3:1 11:0.0648797 12:0.211189 13:0.514059 14:0.453213 15:0.461804 16:0.516668 17:0.520611 18:0.4829 19:0.520164 20:0.538951 21:0.526337 22:0.513499 
1 8:1 11:0.069311 12:0.216555 13:0.4829 14:0.520164 15:0.538951 16:0.526337 17:0.513499 18:0.481875 19:0.522019 20:0.54098 21:0.514637 22:0.469739 
1 2:1 11:0.0710942 12:0.216742 13:0.513499 14:0.481875 15:0.522019 16:0.54098 17:0.514637 18:0.469739 19:0.522833 20:0.522678 21:0.536887 22:0.522237 
1 2:1 11:0.0883455 12:0.191637 13:0.507131 14:0.524202 15:0.507625 16:0.501693 17:0.503732 18:0.463925 19:0.499971 20:0.497173 21:0.5223 22:0.496885 
1 6:1 11:0.0849913 12:0.190845 13:0.516983 14:0.521474 15:0.514079 16:0.484653 17:0.51523 18:0.461407 19:0.483162 20:0.52256 21:0.506258 22:0.505903 
1 2:1 11:0.0800215 12:0.194625 13:0.483162 14:0.52256 15:0.506258 16:0.505903 17:0.50295 18:0.468747 19:0.506519 20:0.496041 21:0.527548 22:0.523078 
1 9:1 11:0.0775716 12:0.199197 13:0.496041 14:0.527548 15:0.523078 16:0.511664 17:0.51065 18:0.449602 19:0.456583 20:0.518165 21:0.532623 22:0.519857 
1 10:1 11:0.0727239 12:0.200784 13:0.527548 14:0.523078 15:0.511664 16:0.51065 17:0.449602 18:0.456583 19:0.518165 20:0.532623 21:0.519857 22:0.514026 
1 9:1 11:0.0853611 12:0.195417 13:0.496504 14:0.524618 15:0.509097 16:0.506928 17:0.51551 18:0.454728 19:0.504252 20:0.518391 21:0.5197 22:0.516576 
1 7:1 11:0.0868079 12:0.191218 13:0.505492 14:0.517534 15:0.50216 16:0.520219 17:0.503711 18:0.461435 19:0.499909 20:0.508195 21:0.516914 22:0.510864 
1 9:1 11:0.0846957 12:0.191824 13:0.501142 14:0.521678 15:0.505318 16:0.519669 17:0.511049 18:0.452289 19:0.490954 20:0.504703 21:0.509667 22:0.516763 
1 2:1 11:0.0831347 12:0.19481 13:0.514906 14:0.526195 15:0.515471 16:0.508225 17:0.505001 18:0.462519 19:0.504482 20:0.507204 21:0.523509 22:0.506601 
1 5:1 11:0.0823853 12:0.19481 13:0.512965 14:0.515829 15:0.520363 16:0.513655 17:0.484218 18:0.468116 19:0.489819 20:0.516415 21:0.518855 22:0.506393 
1 7:1 11:0.0816318 12:0.196818 13:0.514845 14:0.52014 15:0.497023 16:0.531738 17:0.501003 18:0.460556 19:0.496939 20:0.500854 21:0.516974 22:0.514208 
1 9:1 11:0.0805787 12:0.198403 13:0.501564 14:0.526861 15:0.505281 16:0.52373 17:0.511113 18:0.452339 19:0.498206 20:0.517158 21:0.52484 22:0.522277 
1 7:1 11:0.0792253 12:0.199197 13:0.52484 14:0.522277 15:0.494785 16:0.517169 17:0.502606 18:0.466985 19:0.514098 20:0.517462 21:0.509383 22:0.514661 
1 7:1 11:0.0779333 12:0.199804 13:0.507463 14:0.520771 15:0.508155 16:0.51938 17:0.484838 18:0.463175 19:0.503559 20:0.513003 21:0.51691 22:0.51759 
1 9:1 11:0.0787268 12:0.194204 13:0.488437 14:0.523628 15:0.497369 16:0.507947 17:0.478605 18:0.452045 19:0.503522 20:0.521069 21:0.505723 22:0.515808 
1 8:1 11:0.0766847 12:0.199383 13:0.515808 14:0.480392 15:0.521678 16:0.512117 17:0.50498 18:0.478913 19:0.506743 20:0.515365 21:0.518259 22:0.500555 
1 4:1 11:0.0732531 12:0.202976 13:0.506743 14:0.515365 15:0.518259 16:0.500555 17:0.51308 18:0.454062 19:0.459485 20:0.511339 21:0.532458 22:0.536254 
1 5:1 11:0.0685662 12:0.202976 13:0.515365 14:0.518259 15:0.500555 16:0.51308 17:0.454062 18:0.459485 19:0.511339 20:0.532458 21:0.536254 22:0.509083 
1 2:1 11:0.0717055 12:0.209556 13:0.532458 14:0.536254 15:0.509083 16:0.507047 17:0.51496 18:0.472079 19:0.523081 20:0.535539 21:0.533013 22:0.506835 
1 5:1 11:0.0850501 12:0.192804 13:0.498103 14:0.510854 15:0.515991 16:0.514032 17:0.48867 18:0.469368 19:0.493288 20:0.499636 21:0.520304 22:0.494624 
1 3:1 11:0.0788623 12:0.19523 13:0.520304 14:0.494624 15:0.502198 16:0.505112 17:0.503088 18:0.472912 19:0.490846 20:0.534014 21:0.497847 22:0.491714 
1 8:1 11:0.0741554 12:0.200411 13:0.472912 14:0.490846 15:0.534014 16:0.497847 17:0.491714 18:0.472429 19:0.491331 20:0.520802 21:0.514707 22:0.516576 
1 4:1 11:0.073466 12:0.205169 13:0.491331 14:0.520802 15:0.514707 16:0.516576 17:0.531448 18:0.461984 19:0.514405 20:0.518606 21:0.524438 22:0.536546 
1 2:1 11:0.083064 12:0.196024 13:0.511407 14:0.518288 15:0.489321 16:0.511859 17:0.51001 18:0.464298 19:0.505504 20:0.498058 21:0.520336 22:0.464374 
1 6:1 11:0.0792834 12:0.197798 13:0.51001 14:0.464298 15:0.505504 16:0.498058 17:0.520336 18:0.464374 19:0.495499 20:0.528713 21:0.503869 22:0.523612 
1 6:1 11:0.0831467 12:0.19803 13:0.522473 14:0.526041 15:0.522899 16:0.511271 17:0.515893 18:0.464912 19:0.498555 20:0.514893 21:0.504579 22:0.52019 
1 4:1 11:0.0803598 12:0.197798 13:0.504579 14:0.52019 15:0.512799 16:0.514121 17:0.503095 18:0.460065 19:0.51602 20:0.532202 21:0.506992 22:0.467212 
1 8:1 11:0.0797245 12:0.197611 13:0.503095 14:0.460065 15:0.51602 16:0.532202 17:0.506992 18:0.467212 19:0.477615 20:0.474626 21:0.507235 22:0.515713 
1 10:1 11:0.0738204 12:0.194204 13:0.51602 14:0.532202 15:0.506992 16:0.467212 17:0.477615 18:0.474626 19:0.507235 20:0.515713 21:0.482165 22:0.508644 
1 3:1 11:0.0721913 12:0.189631 13:0.467212 14:0.477615 15:0.474626 16:0.507235 17:0.515713 18:0.482165 19:0.508644 20:0.521471 21:0.511302 22:0.477369 
1 7:1 11:0.0711716 12:0.187439 13:0.515713 14:0.482165 15:0.508644 16:0.521471 17:0.511302 18:0.477369 19:0.519747 20:0.512522 21:0.529247 22:0.501065 
1 2:1 11:0.0707164 12:0.184639 13:0.477369 14:0.519747 15:0.512522 16:0.529247 17:0.501065 18:0.469341 19:0.515897 20:0.494969 21:0.498044 22:0.460675 
1 6:1 11:0.0647582 12:0.185852 13:0.501065 14:0.469341 15:0.515897 16:0.494969 17:0.498044 18:0.460675 19:0.504514 20:0.510891 21:0.454715 22:0.50208 
1 9:1 11:0.059396 12:0.188044 13:0.494969 14:0.498044 15:0.460675 16:0.504514 17:0.510891 18:0.454715 19:0.50208 20:0.518793 21:0.508141 22:0.464303 
1 3:1 11:0.0555686 12:0.192617 13:0.510891 14:0.454715 15:0.50208 16:0.518793 17:0.508141 18:0.464303 19:0.499004 20:0.527054 21:0.520766 22:0.513718 
1 2:1 11:0.0557602 12:0.196024 13:0.513718 14:0.522556 15:0.510219 16:0.516653 17:0.495204 18:0.462488 19:0.512018 20:0.510367 21:0.522613 22:0.513787 
1 9:1 11:0.05302 12:0.200411 13:0.510367 14:0.522613 15:0.513787 16:0.510222 17:0.503028 18:0.45405 19:0.50793 20:0.522293 21:0.521132 22:0.523376 
1 5:1 11:0.0519328 12:0.204377 13:0.50793 14:0.522293 15:0.521132 16:0.523376 17:0.49418 18:0.465235 19:0.489159 20:0.466455 21:0.5157 22:0.520337 
1 7:1 11:0.0452692 12:0.205589 13:0.521132 14:0.523376 15:0.49418 16:0.465235 17:0.489159 18:0.466455 19:0.5157 20:0.520337 21:0.520417 22:0.521303 
1 7:1 11:0.0503092 12:0.212169 13:0.516637 14:0.523822 15:0.517122 16:0.526709 17:0.498285 18:0.457236 19:0.511406 20:0.517047 21:0.521181 22:0.517962 
1 3:1 11:0.0493041 12:0.214968 13:0.511406 14:0.517047 15:0.521181 16:0.517962 17:0.501389 18:0.465954 19:0.504703 20:0.528522 21:0.524151 22:0.520417 
1 2:1 11:0.0653876 12:0.203397 13:0.515913 14:0.5259 15:0.507912 16:0.52064 17:0.501022 18:0.461523 19:0.505189 20:0.497793 21:0.451098 22:0.453223 
1 5:1 11:0.0583562 12:0.208996 13:0.52064 14:0.501022 15:0.461523 16:0.505189 17:0.497793 18:0.451098 19:0.453223 20:0.512643 21:0.530626 22:0.520011 
1 6:1 11:0.0525208 12:0.208996 13:0.501022 14:0.461523 15:0.505189 16:0.497793 17:0.451098 18:0.453223 19:0.512643 20:0.530626 21:0.520011 22:0.535628 
1 8:1 11:0.0883635 12:0.205776 13:0.51987 14:0.502028 15:0.517424 16:0.501231 17:0.505328 18:0.471412 19:0.495603 20:0.518876 21:0.514929 22:0.465952 
1 2:1 11:0.085335 12:0.206803 13:0.505328 14:0.471412 15:0.495603 16:0.518876 17:0.514929 18:0.465952 19:0.502734 20:0.505691 21:0.531593 22:0.512678 
1 9:1 11:0.0844301 12:0.207595 13:0.505691 14:0.531593 15:0.512678 16:0.503942 17:0.528975 18:0.45567 19:0.503168 20:0.522204 21:0.533004 22:0.523664 
1 9:1 11:0.094548 12:0.192431 13:0.488724 14:0.519465 15:0.501154 16:0.499693 17:0.504513 18:0.453732 19:0.487775 20:0.511747 21:0.50881 22:0.51286 
1 8:1 11:0.0885083 12:0.198824 13:0.51286 14:0.493368 15:0.50833 16:0.493061 17:0.499968 18:0.480665 19:0.505114 20:0.512648 21:0.50115 22:0.467517 
1 2:1 11:0.084677 12:0.201391 13:0.499968 14:0.480665 15:0.505114 16:0.512648 17:0.50115 18:0.467517 19:0.500357 20:0.50558 21:0.529 22:0.516422 
1 8:1 11:0.0881707 12:0.202976 13:0.519149 14:0.499991 15:0.51868 16:0.500834 17:0.506183 18:0.468973 19:0.496399 20:0.519478 21:0.519366 22:0.51697 
1 3:1 11:0.0911177 12:0.200224 13:0.537781 14:0.500911 15:0.501842 16:0.512575 17:0.5098 18:0.471412 19:0.496497 20:0.527245 21:0.512951 22:0.494104 
1 5:1 11:0.0905451 12:0.19803 13:0.516567 14:0.507971 15:0.512652 16:0.529336 17:0.48404 18:0.471697 19:0.495221 20:0.513671 21:0.520571 22:0.501344 
1 1:1 11:0.0896876 12:0.185431 13:0.498381 14:0.507192 15:0.520055 16:0.495071 17:0.503598 18:0.465323 19:0.497661 20:0.518337 21:0.495228 22:0.520634 
1 1:1 11:0.081178 12:0.178853 13:0.503784 14:0.498436 15:0.503775 16:0.49476 17:0.497834 18:0.448267 19:0.484588 20:0.502738 21:0.454994 22:0.492169 
1 4:1 11:0.0736749 12:0.182258 13:0.49476 14:0.497834 15:0.448267 16:0.484588 17:0.502738 18:0.454994 19:0.492169 20:0.498846 21:0.495673 22:0.501468 
1 3:1 11:0.0659581 12:0.197423 13:0.512365 14:0.498407 15:0.515328 16:0.510573 17:0.49343 18:0.464772 19:0.494165 20:0.518119 21:0.509681 22:0.513794 
1 5:1 11:0.0683627 12:0.266623 13:0.509012 14:0.515794 15:0.516017 16:0.520205 17:0.494273 18:0.45036 19:0.448743 20:0.512409 21:0.535675 22:0.528574 
1 6:1 11:0.0624338 12:0.270168 13:0.515794 14:0.516017 15:0.520205 16:0.494273 17:0.45036 18:0.448743 19:0.512409 20:0.535675 21:0.528574 22:0.539961 
1 3:1 11:0.106825 12:0.342588 13:0.553307 14:0.533929 15:0.55126 16:0.546043 17:0.523756 18:0.475273 19:0.531262 20:0.567472 21:0.558141 22:0.556937 
1 2:1 11:0.131902 12:0.338995 13:0.556937 14:0.558333 15:0.567397 16:0.552905 17:0.530438 18:0.473598 19:0.54983 20:0.567842 21:0.564972 22:0.557146 
1 4:1 11:0.234404 12:0.262236 13:0.55425 14:0.532329 15:0.532724 16:0.545884 17:0.521167 18:0.463082 19:0.532539 20:0.538997 21:0.54272 22:0.540334 
1 1:1 11:0.255482 12:0.241472 13:0.52361 14:0.535493 15:0.529092 16:0.549903 17:0.504021 18:0.461734 19:0.528695 20:0.543739 21:0.550433 22:0.548958 
1 2:1 11:0.265127 12:0.228313 13:0.526803 14:0.526442 15:0.509012 16:0.541444 17:0.52175 18:0.465892 19:0.519546 20:0.543212 21:0.544022 22:0.519895 
1 6:1 11:0.277344 12:0.218561 13:0.536917 14:0.545581 15:0.528487 16:0.527057 17:0.508425 18:0.46685 19:0.510885 20:0.530629 21:0.534066 22:0.528868 
1 2:1 11:0.278944 12:0.20699 13:0.510885 14:0.530629 15:0.534066 16:0.528868 17:0.511041 18:0.465056 19:0.519147 20:0.542961 21:0.518634 22:0.464317 
1 6:1 11:0.279632 12:0.205962 13:0.511041 14:0.465056 15:0.519147 16:0.542961 17:0.518634 18:0.464317 19:0.50518 20:0.538329 21:0.544557 22:0.503412 
1 1:1 11:0.280619 12:0.205962 13:0.464317 14:0.50518 15:0.538329 16:0.544557 17:0.503412 18:0.46789 19:0.53617 20:0.532445 21:0.535491 22:0.545647 
1 3:1 11:0.289793 12:0.19999 13:0.524997 14:0.540801 15:0.526611 16:0.532512 17:0.508925 18:0.458838 19:0.517597 20:0.545486 21:0.522318 22:0.51265 
1 2:1 11:0.293404 12:0.196397 13:0.51265 14:0.524893 15:0.535606 16:0.524351 17:0.504395 18:0.464219 19:0.519694 20:0.546326 21:0.533322 22:0.497469 
1 7:1 11:0.294238 12:0.196397 13:0.464219 14:0.519694 15:0.546326 16:0.533322 17:0.497469 18:0.459619 19:0.501826 20:0.484403 21:0.518858 22:0.535723 
1 9:1 11:0.293046 12:0.196397 13:0.546326 14:0.533322 15:0.497469 16:0.459619 17:0.501826 18:0.484403 19:0.518858 20:0.535723 21:0.545383 22:0.530877 
1 5:1 11:0.296198 12:0.191405 13:0.518858 14:0.535723 15:0.545383 16:0.530877 17:0.517564 18:0.470999 19:0.512717 20:0.531516 21:0.515421 22:0.466645 
1 9:1 11:0.296071 12:0.191405 13:0.517564 14:0.470999 15:0.512717 16:0.531516 17:0.515421 18:0.466645 19:0.512107 20:0.53414 21:0.532232 22:0.526776 
1 5:1 11:0.306334 12:0.188651 13:0.516232 14:0.523924 15:0.528074 16:0.517122 17:0.509674 18:0.46666 19:0.480307 20:0.473016 21:0.527452 22:0.554431 
1 7:1 11:0.303837 12:0.188651 13:0.528074 14:0.517122 15:0.509674 16:0.46666 17:0.480307 18:0.473016 19:0.527452 20:0.554431 21:0.49913 22:0.470334 
1 1:1 11:0.304738 12:0.185431 13:0.480307 14:0.473016 15:0.527452 16:0.554431 17:0.49913 18:0.470334 19:0.519584 20:0.528935 21:0.531943 22:0.541288 
1 10:1 11:0.309095 12:0.184826 13:0.541288 14:0.524318 15:0.52042 16:0.529164 17:0.5179 18:0.45991 19:0.516943 20:0.542643 21:0.520194 22:0.534471 
1 5:1 11:0.333715 12:0.174094 13:0.504229 14:0.515824 15:0.519117 16:0.515239 17:0.508733 18:0.473437 19:0.501456 20:0.515857 21:0.521385 22:0.536688 
1 8:1 11:0.335698 12:0.168494 13:0.515285 14:0.524701 15:0.527107 16:0.502833 17:0.501373 18:0.457399 19:0.533429 20:0.513057 21:0.5019 22:0.473157 
1 2:1 11:0.335407 12:0.168494 13:0.501373 14:0.457399 15:0.533429 16:0.513057 17:0.5019 18:0.473157 19:0.503734 20:0.51884 21:0.529871 22:0.505382 
1 5:1 11:0.336604 12:0.163687 13:0.494454 14:0.510298 15:0.528331 16:0.506877 17:0.503481 18:0.470954 19:0.500276 20:0.511635 21:0.514594 22:0.540123 
1 1:1 11:0.335498 12:0.163501 13:0.500276 14:0.511635 15:0.514594 16:0.540123 17:0.481394 18:0.466688 19:0.51831 20:0.519912 21:0.521434 22:0.531965 
1 8:1 11:0.335393 12:0.163314 13:0.519912 14:0.521434 15:0.531965 16:0.50658 17:0.495521 18:0.454708 19:0.528303 20:0.517193 21:0.522369 22:0.519153 
1 10:1 11:0.33771 12:0.160701 13:0.529862 14:0.499061 15:0.5004 16:0.526449 17:0.516152 18:0.458668 19:0.502832 20:0.526715 21:0.509457 22:0.507216 
1 5:1 11:0.336981 12:0.159721 13:0.458668 14:0.502832 15:0.526715 16:0.509457 17:0.507216 18:0.471103 19:0.500038 20:0.519348 21:0.518349 22:0.535336 
1 7:1 11:0.337784 12:0.154915 13:0.518576 14:0.503074 15:0.521335 16:0.534592 17:0.48691 18:0.458153 19:0.508995 20:0.536319 21:0.512497 22:0.511112 
1 8:1 11:0.338722 12:0.153935 13:0.508253 14:0.52495 15:0.524762 16:0.498537 17:0.501519 18:0.459363 19:0.531961 20:0.50591 21:0.509953 22:0.525114 
1 4:1 11:0.338188 12:0.152536 13:0.531961 14:0.50591 15:0.509953 16:0.525114 17:0.497523 18:0.459305 19:0.517853 20:0.520287 21:0.510795 22:0.517977 
1 7:1 11:0.339717 12:0.153142 13:0.512763 14:0.507511 15:0.525514 16:0.52685 17:0.487676 18:0.459675 19:0.510865 20:0.534011 21:0.503544 22:0.509533 
1 5:1 11:0.339355 12:0.153142 13:0.503544 14:0.509533 15:0.524539 16:0.51543 17:0.507547 18:0.443547 19:0.464237 20:0.509109 21:0.531559 22:0.511903 
1 6:1 11:0.337735 12:0.153142 13:0.509533 14:0.524539 15:0.51543 16:0.507547 17:0.443547 18:0.464237 19:0.509109 20:0.531559 21:0.511903 22:0.455152 
1 10:1 11:0.33692 12:0.153142 13:0.443547 14:0.464237 15:0.509109 16:0.531559 17:0.511903 18:0.455152 19:0.505389 20:0.533647 21:0.509463 22:0.523162 
1 7:1 11:0.343769 12:0.15235 13:0.522298 14:0.510848 15:0.517243 16:0.52304 17:0.494203 18:0.458123 19:0.51403 20:0.518191 21:0.459564 22:0.504058 
1 10:1 11:0.342645 12:0.15235 13:0.52304 14:0.494203 15:0.458123 16:0.51403 17:0.518191 18:0.459564 19:0.504058 20:0.531825 21:0.510854 22:0.518422 
1 3:1 11:0.343918 12:0.15137 13:0.510114 14:0.539626 15:0.504288 16:0.509291 17:0.507058 18:0.456731 19:0.509406 20:0.529702 21:0.508019 22:0.508775 
1 1:1 11:0.345911 12:0.150949 13:0.504123 14:0.504816 15:0.516353 16:0.528354 17:0.478493 18:0.463792 19:0.511277 20:0.515065 21:0.507848 22:0.470014 
1 5:1 11:0.344981 12:0.150949 13:0.478493 14:0.463792 15:0.511277 16:0.515065 17:0.507848 18:0.470014 19:0.500155 20:0.515914 21:0.513067 22:0.53676 
1 2:1 11:0.345819 12:0.15137 13:0.500827 14:0.513086 15:0.532026 16:0.499297 17:0.498118 18:0.468221 19:0.506884 20:0.525925 21:0.516704 22:0.482504 
1 7:1 11:0.343996 12:0.150949 13:0.468221 14:0.506884 15:0.525925 16:0.516704 17:0.482504 18:0.455322 19:0.507429 20:0.533864 21:0.502321 22:0.510722 
1 6:1 11:0.343119 12:0.151136 13:0.510722 14:0.524577 15:0.505903 16:0.507882 17:0.499117 18:0.450508 19:0.442132 20:0.504888 21:0.541077 22:0.496108 
1 7:1 11:0.340689 12:0.151136 13:0.524577 14:0.505903 15:0.507882 16:0.499117 17:0.450508 18:0.442132 19:0.504888 20:0.541077 21:0.496108 22:0.504285 
1 2:1 11:0.341361 12:0.154915 13:0.501689 14:0.514256 15:0.528628 16:0.496246 17:0.489486 18:0.466926 19:0.498146 20:0.527449 21:0.505706 22:0.468856 
1 6:1 11:0.340272 12:0.155755 13:0.489486 14:0.466926 15:0.498146 16:0.527449 17:0.505706 18:0.468856 19:0.491538 20:0.511341 21:0.511891 22:0.499753 
1 2:1 11:0.342422 12:0.148756 13:0.496792 14:0.517439 15:0.532117 16:0.496942 17:0.495766 18:0.468352 19:0.507469 20:0.523466 21:0.521742 22:0.501878 
1 1:1 11:0.343236 12:0.142969 13:0.505808 14:0.50213 15:0.516507 16:0.528573 17:0.478955 18:0.46645 19:0.501443 20:0.493397 21:0.475079 22:0.491603 
1 7:1 11:0.338111 12:0.142969 13:0.501443 14:0.493397 15:0.475079 16:0.491603 17:0.47975 18:0.465653 19:0.497031 20:0.444496 21:0.437101 22:0.495599 
1 9:1 11:0.33535 12:0.142969 13:0.475079 14:0.491603 15:0.47975 16:0.465653 17:0.497031 18:0.444496 19:0.437101 20:0.495599 21:0.515996 22:0.501173 
1 10:1 11:0.33268 12:0.142969 13:0.491603 14:0.47975 15:0.465653 16:0.497031 17:0.444496 18:0.437101 19:0.495599 20:0.515996 21:0.501173 22:0.50275 
1 5:1 11:0.330437 12:0.142969 13:0.437101 14:0.495599 15:0.515996 16:0.501173 17:0.50275 18:0.462468 19:0.494376 20:0.505391 21:0.495389 22:0.441218 
1 9:1 11:0.326862 12:0.142177 13:0.50275 14:0.462468 15:0.494376 16:0.505391 17:0.495389 18:0.441218 19:0.440308 20:0.495368 21:0.515845 22:0.493044 
1 10:1 11:0.324262 12:0.143763 13:0.462468 14:0.494376 15:0.505391 16:0.495389 17:0.441218 18:0.440308 19:0.495368 20:0.515845 21:0.493044 22:0.512464 
1 8:1 11:0.318594 12:0.144556 13:0.483142 14:0.505993 15:0.513384 16:0.497991 17:0.482892 18:0.452124 19:0.518819 20:0.50316 21:0.495239 22:0.503604 
1 8:1 11:0.313929 12:0.146749 13:0.501718 14:0.51106 15:0.508655 16:0.486746 17:0.485615 18:0.440804 19:0.450679 20:0.488895 21:0.508222 22:0.510515 
1 9:1 11:0.311665 12:0.146749 13:0.51106 14:0.508655 15:0.486746 16:0.485615 17:0.440804 18:0.450679 19:0.488895 20:0.508222 21:0.510515 22:0.498125 
1 6:1 11:0.30843 12:0.147356 13:0.508222 14:0.510515 15:0.498125 16:0.507684 17:0.498785 18:0.458663 19:0.478434 20:0.5224 21:0.525746 22:0.496597 
1 8:1 11:0.301902 12:0.155941 13:0.497203 14:0.514903 15:0.519872 16:0.496707 17:0.486672 18:0.452143 19:0.501511 20:0.445524 21:0.443809 22:0.509719 
1 10:1 11:0.299114 12:0.155941 13:0.519872 14:0.496707 15:0.486672 16:0.452143 17:0.501511 18:0.445524 19:0.443809 20:0.509719 21:0.520268 22:0.504852 
1 1:1 11:0.29648 12:0.155941 13:0.496707 14:0.486672 15:0.452143 16:0.501511 17:0.445524 18:0.443809 19:0.509719 20:0.520268 21:0.504852 22:0.462424 
1 5:1 11:0.295142 12:0.157342 13:0.445524 14:0.443809 15:0.509719 16:0.520268 17:0.504852 18:0.462424 19:0.493601 20:0.513955 21:0.517044 22:0.52058 
1 6:1 11:0.29313 12:0.159721 13:0.514933 14:0.507456 15:0.490844 16:0.507522 17:0.506227 18:0.45427 19:0.492563 20:0.522334 21:0.526209 22:0.510791 
1 9:1 11:0.293919 12:0.1691 13:0.517135 14:0.52052 15:0.505957 16:0.507109 17:0.501878 18:0.462573 19:0.51062 20:0.532419 21:0.528837 22:0.518143 
1 7:1 11:0.295815 12:0.171667 13:0.528837 14:0.518143 15:0.528483 16:0.53056 17:0.498975 18:0.45589 19:0.515881 20:0.551292 21:0.517666 22:0.513408 
1 7:1 11:0.299492 12:0.175679 13:0.525909 14:0.524583 15:0.528226 16:0.527702 17:0.496877 18:0.460232 19:0.512297 20:0.538715 21:0.517077 22:0.522677 
1 4:1 11:0.300432 12:0.175679 13:0.538715 14:0.517077 15:0.522677 16:0.5235 17:0.495624 18:0.464191 19:0.52634 20:0.532063 21:0.514602 22:0.460899 
1 8:1 11:0.300624 12:0.177453 13:0.495624 14:0.464191 15:0.52634 16:0.532063 17:0.514602 18:0.460899 19:0.528461 20:0.526701 21:0.520259 22:0.521956 
1 1:1 11:0.312105 12:0.177873 13:0.516748 14:0.511969 15:0.519779 16:0.532492 17:0.494462 18:0.449128 19:0.456826 20:0.517246 21:0.538002 22:0.531422 
1 2:1 11:0.310081 12:0.177873 13:0.511969 14:0.519779 15:0.532492 16:0.494462 17:0.449128 18:0.456826 19:0.517246 20:0.538002 21:0.531422 22:0.510643 
1 10:1 11:0.329698 12:0.163128 13:0.526198 14:0.507947 15:0.507174 16:0.515357 17:0.516448 18:0.459107 19:0.503256 20:0.521139 21:0.509109 22:0.521088 
1 7:1 11:0.328511 12:0.162707 13:0.521139 14:0.509109 15:0.521088 16:0.527845 17:0.484503 18:0.453364 19:0.507595 20:0.546132 21:0.507976 22:0.509249 
1 5:1 11:0.328742 12:0.162895 13:0.507976 14:0.509249 15:0.519415 16:0.513116 17:0.501307 18:0.459851 19:0.495352 20:0.521005 21:0.513972 22:0.527211 
1 5:1 11:0.331316 12:0.165508 13:0.500853 14:0.509341 15:0.519153 16:0.510656 17:0.508355 18:0.470561 19:0.49522 20:0.507397 21:0.528351 22:0.534675 
1 6:1 11:0.332147 12:0.164108 13:0.505071 14:0.515999 15:0.512692 16:0.524408 17:0.510804 18:0.469333 19:0.492556 20:0.524379 21:0.536799 22:0.49857 
1 8:1 11:0.332303 12:0.163314 13:0.506325 14:0.519005 15:0.52889 16:0.503054 17:0.490479 18:0.459804 19:0.534998 20:0.513522 21:0.510556 22:0.520674 
1 2:1 11:0.334231 12:0.163314 13:0.502149 14:0.528384 15:0.532041 16:0.496834 17:0.491039 18:0.470422 19:0.506306 20:0.523601 21:0.529938 22:0.510905 
1 6:1 11:0.34004 12:0.158741 13:0.51357 14:0.523786 15:0.511581 16:0.520989 17:0.500666 18:0.466267 19:0.487532 20:0.468221 21:0.532788 22:0.512017 
1 8:1 11:0.33783 12:0.158322 13:0.511581 14:0.520989 15:0.500666 16:0.466267 17:0.487532 18:0.468221 19:0.532788 20:0.512017 21:0.515359 22:0.523631 
1 5:1 11:0.338664 12:0.158322 13:0.512017 14:0.515359 15:0.523631 16:0.51134 17:0.505719 18:0.472619 19:0.50001 20:0.512188 21:0.528352 22:0.516863 
1 10:1 11:0.337949 12:0.160141 13:0.472619 14:0.50001 15:0.512188 16:0.528352 17:0.516863 18:0.460251 19:0.504941 20:0.526524 21:0.510869 22:0.519441 
1 9:1 11:0.339239 12:0.161915 13:0.519441 14:0.530748 15:0.509977 16:0.513696 17:0.511341 18:0.472761 19:0.500715 20:0.525081 21:0.523678 22:0.510148 
1 3:1 11:0.341404 12:0.158135 13:0.519048 14:0.539395 15:0.504515 16:0.515001 17:0.503387 18:0.459369 19:0.51667 20:0.531719 21:0.507935 22:0.492023 
1 8:1 11:0.34033 12:0.158135 13:0.459369 14:0.51667 15:0.531719 16:0.507935 17:0.492023 18:0.459508 19:0.535276 20:0.490166 21:0.466948 22:0.513409 
1 1:1 11:0.339222 12:0.158135 13:0.507935 14:0.492023 15:0.459508 16:0.535276 17:0.490166 18:0.466948 19:0.513409 20:0.523455 21:0.518069 22:0.498553 
1 6:1 11:0.338486 12:0.154122 13:0.466948 14:0.513409 15:0.523455 16:0.518069 17:0.498553 18:0.463562 19:0.491716 20:0.52262 21:0.471009 22:0.502384 
1 9:1 11:0.337106 12:0.155941 13:0.518069 14:0.498553 15:0.463562 16:0.491716 17:0.52262 18:0.471009 19:0.502384 20:0.524522 21:0.518254 22:0.49377 
1 4:1 11:0.335759 12:0.155941 13:0.471009 14:0.502384 15:0.524522 16:0.518254 17:0.49377 18:0.462079 19:0.52826 20:0.520035 21:0.498836 22:0.519027 
1 3:1 11:0.336135 12:0.157715 13:0.519027 14:0.54207 15:0.497218 16:0.503769 17:0.499962 18:0.466618 19:0.521189 20:0.507253 21:0.469311 22:0.491117 
1 6:1 11:0.335219 12:0.156129 13:0.503769 14:0.499962 15:0.466618 16:0.521189 17:0.507253 18:0.469311 19:0.491117 20:0.518684 21:0.524119 22:0.502166 
1 9:1 11:0.336396 12:0.156314 13:0.518427 14:0.526383 15:0.508219 16:0.505122 17:0.504079 18:0.474724 19:0.503083 20:0.519068 21:0.517477 22:0.509007 
1 1:1 11:0.337321 12:0.156921 13:0.503069 14:0.504179 15:0.522871 16:0.54522 17:0.476358 18:0.464346 19:0.51495 20:0.51978 21:0.523173 22:0.526635 
1 7:1 11:0.337089 12:0.158508 13:0.51495 14:0.51978 15:0.523173 16:0.526635 17:0.489609 18:0.463579 19:0.511339 20:0.535285 21:0.503076 22:0.515285 
1 9:1 11:0.339231 12:0.157949 13:0.52206 14:0.524653 15:0.50856 16:0.515142 17:0.506322 18:0.470379 19:0.47816 20:0.479215 21:0.520787 22:0.517901 
1 1:1 11:0.337075 12:0.157949 13:0.50856 14:0.515142 15:0.506322 16:0.470379 17:0.47816 18:0.479215 19:0.520787 20:0.517901 21:0.521289 22:0.527789 
1 9:1 11:0.338003 12:0.159302 13:0.521289 14:0.527789 15:0.512069 16:0.506061 17:0.507312 18:0.470034 19:0.500739 20:0.527475 21:0.523065 22:0.512761 
1 7:1 11:0.341756 12:0.158135 13:0.518442 14:0.508425 15:0.520834 16:0.527909 17:0.491371 18:0.454872 19:0.514234 20:0.543771 21:0.501605 22:0.512575 
1 4:1 11:0.341502 12:0.160514 13:0.543771 14:0.501605 15:0.512575 16:0.527072 17:0.500339 18:0.444906 19:0.465408 20:0.512588 21:0.522539 22:0.522841 
1 5:1 11:0.339932 12:0.159721 13:0.501605 14:0.512575 15:0.527072 16:0.500339 17:0.444906 18:0.465408 19:0.512588 20:0.522539 21:0.522841 22:0.534214 
1 5:1 11:0.341566 12:0.159721 13:0.501138 14:0.516123 15:0.522068 16:0.512313 17:0.507247 18:0.465946 19:0.497804 20:0.508224 21:0.45035 22:0.473624 
1 8:1 11:0.339112 12:0.158927 13:0.512313 14:0.507247 15:0.465946 16:0.497804 17:0.508224 18:0.45035 19:0.473624 20:0.507752 21:0.524431 22:0.522827 
1 9:1 11:0.337844 12:0.158927 13:0.507247 14:0.465946 15:0.497804 16:0.508224 17:0.45035 18:0.473624 19:0.507752 20:0.524431 21:0.522827 22:0.512997 
1 6:1 11:0.338725 12:0.159907 13:0.524431 14:0.522827 15:0.512997 16:0.527998 17:0.513281 18:0.465405 19:0.489576 20:0.518159 21:0.474499 22:0.501685 
1 9:1 11:0.337229 12:0.159907 13:0.527998 14:0.513281 15:0.465405 16:0.489576 17:0.518159 18:0.474499 19:0.501685 20:0.504692 21:0.455587 22:0.443206 
1 2:1 11:0.334962 12:0.159907 13:0.489576 14:0.518159 15:0.474499 16:0.501685 17:0.504692 18:0.455587 19:0.443206 20:0.463363 21:0.538413 22:0.526723 
1 3:1 11:0.332526 12:0.160701 13:0.518159 14:0.474499 15:0.501685 16:0.504692 17:0.455587 18:0.443206 19:0.463363 20:0.538413 21:0.526723 22:0.511497 
1 4:1 11:0.330847 12:0.160701 13:0.474499 14:0.501685 15:0.504692 16:0.455587 17:0.443206 18:0.463363 19:0.538413 20:0.526723 21:0.511497 22:0.524051 
1 2:1 11:0.332839 12:0.159115 13:0.511497 14:0.524051 15:0.543883 16:0.498285 17:0.495505 18:0.472368 19:0.514281 20:0.534208 21:0.522258 22:0.503511 
1 2:1 11:0.333894 12:0.160328 13:0.506517 14:0.51776 15:0.536781 16:0.498013 17:0.497066 18:0.470507 19:0.507459 20:0.530891 21:0.528785 22:0.509516 
1 2:1 11:0.334762 12:0.160514 13:0.505597 14:0.513186 15:0.539023 16:0.502152 17:0.496788 18:0.462634 19:0.505142 20:0.514234 21:0.47754 22:0.50692 
1 5:1 11:0.33381 12:0.159721 13:0.502152 14:0.496788 15:0.462634 16:0.505142 17:0.514234 18:0.47754 19:0.50692 20:0.518393 21:0.519351 22:0.530986 
1 4:1 11:0.336545 12:0.158322 13:0.531828 14:0.503545 15:0.513429 16:0.516457 17:0.491053 18:0.457335 19:0.519551 20:0.520793 21:0.503019 22:0.518124 
1 6:1 11:0.338522 12:0.148756 13:0.505698 14:0.512984 15:0.497751 16:0.516406 17:0.49523 18:0.468307 19:0.481629 20:0.517431 21:0.507701 22:0.463087 
1 10:1 11:0.33628 12:0.147963 13:0.49523 14:0.468307 15:0.481629 16:0.517431 17:0.507701 18:0.463087 19:0.494501 20:0.519264 21:0.502069 22:0.519564 
1 7:1 11:0.334579 12:0.147963 13:0.519264 14:0.502069 15:0.519564 16:0.518849 17:0.489592 18:0.462456 19:0.504921 20:0.480085 21:0.453588 22:0.48384 
1 10:1 11:0.331402 12:0.149362 13:0.518849 14:0.489592 15:0.462456 16:0.504921 17:0.480085 18:0.453588 19:0.48384 20:0.510516 21:0.454224 22:0.472306 
1 7:1 11:0.32166 12:0.151743 13:0.504111 14:0.49731 15:0.502585 16:0.503128 17:0.470364 18:0.44993 19:0.498151 20:0.520185 21:0.490238 22:0.495738 
1 4:1 11:0.314261 12:0.152536 13:0.495329 14:0.500925 15:0.499954 16:0.500764 17:0.475496 18:0.453703 19:0.509314 20:0.498451 21:0.488681 22:0.50126 
1 4:1 11:0.306075 12:0.152723 13:0.510009 14:0.493263 15:0.5009 16:0.502236 17:0.481794 18:0.457745 19:0.515901 20:0.505059 21:0.493179 22:0.498984 
1 5:1 11:0.301142 12:0.157108 13:0.496829 14:0.503189 15:0.511575 16:0.49969 17:0.491535 18:0.46174 19:0.494044 20:0.511626 21:0.50496 22:0.518953 
1 4:1 11:0.297833 12:0.159721 13:0.522299 14:0.501849 15:0.501941 16:0.510529 17:0.494664 18:0.463895 19:0.515895 20:0.506001 21:0.505365 22:0.511926 
1 6:1 11:0.296639 12:0.161495 13:0.503014 14:0.509769 15:0.508757 16:0.525906 17:0.494113 18:0.457339 19:0.490806 20:0.519007 21:0.524131 22:0.504514 
1 4:1 11:0.294467 12:0.163314 13:0.524131 14:0.504514 15:0.508938 16:0.511134 17:0.491189 18:0.456818 19:0.517479 20:0.498402 21:0.450631 22:0.508672 
1 7:1 11:0.292143 12:0.164528 13:0.511134 14:0.491189 15:0.456818 16:0.517479 17:0.498402 18:0.450631 19:0.508672 20:0.536737 21:0.505014 22:0.504717 
1 1:1 11:0.304783 12:0.173487 13:0.507629 14:0.512923 15:0.525018 16:0.535477 17:0.494438 18:0.463411 19:0.5118 20:0.508292 21:0.46663 22:0.527383 
1 4:1 11:0.303342 12:0.17526 13:0.535477 14:0.494438 15:0.463411 16:0.5118 17:0.508292 18:0.46663 19:0.527383 20:0.522164 21:0.508653 22:0.514031 
1 9:1 11:0.303648 12:0.174467 13:0.46663 14:0.527383 15:0.522164 16:0.508653 17:0.514031 18:0.47189 19:0.50983 20:0.528005 21:0.523095 22:0.520922 
1 6:1 11:0.31819 12:0.170687 13:0.512244 14:0.52048 15:0.517093 16:0.524059 17:0.503151 18:0.44544 19:0.445155 20:0.525966 21:0.547047 22:0.50926 
1 7:1 11:0.315733 12:0.1691 13:0.52048 14:0.517093 15:0.524059 16:0.503151 17:0.44544 18:0.445155 19:0.525966 20:0.547047 21:0.50926 22:0.517288 
1 3:1 11:0.316153 12:0.169707 13:0.525966 14:0.547047 15:0.50926 16:0.517288 17:0.507079 18:0.447846 19:0.455581 20:0.534891 21:0.532629 22:0.517341 
1 4:1 11:0.314096 12:0.169707 13:0.547047 14:0.50926 15:0.517288 16:0.507079 17:0.447846 18:0.455581 19:0.534891 20:0.532629 21:0.517341 22:0.520998 
1 10:1 11:0.314782 12:0.169707 13:0.534891 14:0.532629 15:0.517341 16:0.520998 17:0.516732 18:0.438664 19:0.459371 20:0.529701 21:0.51564 22:0.470655 
1 1:1 11:0.312871 12:0.169286 13:0.532629 14:0.517341 15:0.520998 16:0.516732 17:0.438664 18:0.459371 19:0.529701 20:0.51564 21:0.470655 22:0.529444 
1 4:1 11:0.31263 12:0.169286 13:0.516732 14:0.438664 15:0.459371 16:0.529701 17:0.51564 18:0.470655 19:0.529444 20:0.518394 21:0.510216 22:0.523993 
1 10:1 11:0.319077 12:0.168681 13:0.522673 14:0.503424 15:0.513702 16:0.526025 17:0.512267 18:0.460094 19:0.508138 20:0.52749 21:0.513789 22:0.529038 
1 8:1 11:0.319911 12:0.167887 13:0.513789 14:0.529038 15:0.531467 16:0.510557 17:0.498925 18:0.460368 19:0.535436 20:0.52395 21:0.51473 22:0.520978 
1 9:1 11:0.327055 12:0.166907 13:0.524224 14:0.530513 15:0.506779 16:0.510252 17:0.509342 18:0.449064 19:0.457929 20:0.524497 21:0.53332 22:0.51654 
1 10:1 11:0.325141 12:0.166907 13:0.530513 14:0.506779 15:0.510252 16:0.509342 17:0.449064 18:0.457929 19:0.524497 20:0.53332 21:0.51654 22:0.512013 
1 5:1 11:0.326006 12:0.166907 13:0.457929 14:0.524497 15:0.53332 16:0.51654 17:0.512013 18:0.472651 19:0.483043 20:0.469784 21:0.52152 22:0.555005 
1 7:1 11:0.323608 12:0.166907 13:0.53332 14:0.51654 15:0.512013 16:0.472651 17:0.483043 18:0.469784 19:0.52152 20:0.555005 21:0.505061 22:0.507763 
1 6:1 11:0.326031 12:0.166114 13:0.507763 14:0.52466 15:0.515664 16:0.52439 17:0.507686 18:0.466601 19:0.501524 20:0.531863 21:0.536341 22:0.501375 
1 2:1 11:0.325841 12:0.166114 13:0.501524 14:0.531863 15:0.536341 16:0.501375 17:0.497148 18:0.470726 19:0.503782 20:0.533358 21:0.537631 22:0.519002 
1 2:1 11:0.32625 12:0.164528 13:0.503204 14:0.515496 15:0.530235 16:0.494535 17:0.492493 18:0.453984 19:0.44489 20:0.468 21:0.536791 22:0.518707 
1 3:1 11:0.323829 12:0.164528 13:0.515496 14:0.530235 15:0.494535 16:0.492493 17:0.453984 18:0.44489 19:0.468 20:0.536791 21:0.518707 22:0.511802 
1 4:1 11:0.322296 12:0.164528 13:0.530235 14:0.494535 15:0.492493 16:0.453984 17:0.44489 18:0.468 19:0.536791 20:0.518707 21:0.511802 22:0.523049 
1 7:1 11:0.329053 12:0.162521 13:0.517148 14:0.509332 15:0.526867 16:0.529218 17:0.483358 18:0.462774 19:0.514419 20:0.519497 21:0.458344 22:0.505213 
1 10:1 11:0.327907 12:0.161915 13:0.529218 14:0.483358 15:0.462774 16:0.514419 17:0.519497 18:0.458344 19:0.505213 20:0.522275 21:0.501897 22:0.527343 
1 8:1 11:0.327158 12:0.163314 13:0.501897 14:0.527343 15:0.523361 16:0.513212 17:0.496092 18:0.449716 19:0.520924 20:0.523402 21:0.513776 22:0.51993 
1 1:1 11:0.329703 12:0.163128 13:0.50526 14:0.502053 15:0.528483 16:0.536131 17:0.48632 18:0.468112 19:0.50783 20:0.513769 21:0.525521 22:0.519357 
1 10:1 11:0.329334 12:0.161495 13:0.519357 14:0.507733 15:0.503371 16:0.519167 17:0.496347 18:0.463234 19:0.511204 20:0.520466 21:0.495155 22:0.512435 
1 5:1 11:0.328514 12:0.161121 13:0.463234 14:0.511204 15:0.520466 16:0.495155 17:0.512435 18:0.476068 19:0.505663 20:0.515955 21:0.51265 22:0.522789 
1 1:1 11:0.335202 12:0.158508 13:0.503061 14:0.498638 15:0.524796 16:0.536366 17:0.483985 18:0.46281 19:0.512974 20:0.518726 21:0.52256 22:0.527908 
1 9:1 11:0.334612 12:0.160328 13:0.52256 14:0.527908 15:0.502131 16:0.503495 17:0.503659 18:0.45159 19:0.456113 20:0.50011 21:0.485113 22:0.498111 
1 10:1 11:0.332662 12:0.160328 13:0.527908 14:0.502131 15:0.503495 16:0.503659 17:0.45159 18:0.456113 19:0.50011 20:0.485113 21:0.498111 22:0.473541 
1 2:1 11:0.331541 12:0.161121 13:0.503495 14:0.503659 15:0.45159 16:0.456113 17:0.50011 18:0.485113 19:0.498111 20:0.473541 21:0.526158 22:0.511505 
1 4:1 11:0.329894 12:0.161121 13:0.45159 14:0.456113 15:0.50011 16:0.485113 17:0.498111 18:0.473541 19:0.526158 20:0.511505 21:0.505388 22:0.52609 
1 6:1 11:0.333284 12:0.158927 13:0.521191 14:0.529797 15:0.511566 16:0.52385 17:0.503775 18:0.462649 19:0.486791 20:0.523106 21:0.544241 22:0.506285 
1 9:1 11:0.335585 12:0.160701 13:0.520916 14:0.528975 15:0.507942 16:0.507689 17:0.511571 18:0.472851 19:0.501017 20:0.521507 21:0.523918 22:0.509713 
1 6:1 11:0.334993 12:0.162102 13:0.521507 14:0.523918 15:0.509713 16:0.522376 17:0.507267 18:0.449845 19:0.449225 20:0.524038 21:0.54637 22:0.506522 
1 7:1 11:0.332787 12:0.162102 13:0.523918 14:0.509713 15:0.522376 16:0.507267 17:0.449845 18:0.449225 19:0.524038 20:0.54637 21:0.506522 22:0.512238 
1 6:1 11:0.343979 12:0.158927 13:0.505064 14:0.521567 15:0.509617 16:0.523402 17:0.502068 18:0.465282 19:0.491901 20:0.527459 21:0.529958 22:0.501585 
1 2:1 11:0.342954 12:0.158508 13:0.491901 14:0.527459 15:0.529958 16:0.501585 17:0.495254 18:0.470177 19:0.506 20:0.519613 21:0.522515 22:0.514833 
1 7:1 11:0.343162 12:0.155755 13:0.526469 14:0.504941 15:0.521665 16:0.525013 17:0.4863 18:0.44895 19:0.4529 20:0.531066 21:0.514619 22:0.508161 
1 8:1 11:0.341135 12:0.157342 13:0.504941 14:0.521665 15:0.525013 16:0.4863 17:0.44895 18:0.4529 19:0.531066 20:0.514619 21:0.508161 22:0.515026 
1 9:1 11:0.341824 12:0.157342 13:0.511133 14:0.511532 15:0.508189 16:0.5102 17:0.5128 18:0.466686 19:0.49156 20:0.517729 21:0.515464 22:0.496412 
1 7:1 11:0.339939 12:0.153749 13:0.515464 14:0.496412 15:0.517154 16:0.523047 17:0.49006 18:0.456712 19:0.510626 20:0.540257 21:0.486599 22:0.475988 
1 1:1 11:0.339062 12:0.155522 13:0.505223 14:0.506778 15:0.516115 16:0.531242 17:0.480856 18:0.468656 19:0.510321 20:0.510631 21:0.508827 22:0.473453 
1 5:1 11:0.338081 12:0.155941 13:0.480856 14:0.468656 15:0.510321 16:0.510631 17:0.508827 18:0.473453 19:0.504239 20:0.515933 21:0.513694 22:0.530281 
1 2:1 11:0.33723 12:0.155941 13:0.515933 14:0.513694 15:0.530281 16:0.505906 17:0.495513 18:0.463065 19:0.504338 20:0.530586 21:0.536891 22:0.507562 
1 1:1 11:0.337806 12:0.158322 13:0.507562 14:0.500622 15:0.522933 16:0.533479 17:0.476769 18:0.468002 19:0.517803 20:0.502883 21:0.466507 22:0.527919 
1 4:1 11:0.336493 12:0.158322 13:0.533479 14:0.476769 15:0.468002 16:0.517803 17:0.502883 18:0.466507 19:0.527919 20:0.516611 21:0.506763 22:0.514385 
1 4:1 11:0.337299 12:0.157949 13:0.525037 14:0.508006 15:0.517447 16:0.520031 17:0.494778 18:0.463649 19:0.503545 20:0.458357 21:0.43528 22:0.45723 
1 6:1 11:0.335307 12:0.157949 13:0.517447 14:0.520031 15:0.494778 16:0.463649 17:0.503545 18:0.458357 19:0.43528 20:0.45723 21:0.517773 22:0.47669 
1 7:1 11:0.332572 12:0.157949 13:0.520031 14:0.494778 15:0.463649 16:0.503545 17:0.458357 18:0.43528 19:0.45723 20:0.517773 21:0.47669 22:0.507688 
1 8:1 11:0.33066 12:0.157949 13:0.494778 14:0.463649 15:0.503545 16:0.458357 17:0.43528 18:0.45723 19:0.517773 20:0.47669 21:0.507688 22:0.527422 
1 10:1 11:0.329885 12:0.157949 13:0.503545 14:0.458357 15:0.43528 16:0.45723 17:0.517773 18:0.47669 19:0.507688 20:0.527422 21:0.522504 22:0.527427 
1 1:1 11:0.332775 12:0.159115 13:0.521385 14:0.515839 15:0.526851 16:0.534383 17:0.482716 18:0.464847 19:0.506964 20:0.514959 21:0.5242 22:0.53202 
1 2:1 11:0.334466 12:0.158135 13:0.511339 14:0.520767 15:0.535922 16:0.503776 17:0.499587 18:0.467356 19:0.504697 20:0.534623 21:0.527736 22:0.503753 
1 9:1 11:0.334742 12:0.160328 13:0.534623 14:0.527736 15:0.503753 16:0.505828 17:0.511338 18:0.470545 19:0.502176 20:0.528535 21:0.530343 22:0.510642 
1 5:1 11:0.334807 12:0.160328 13:0.502176 14:0.528535 15:0.530343 16:0.510642 17:0.504527 18:0.469513 19:0.500074 20:0.51455 21:0.524221 22:0.543357 
1 1:1 11:0.334297 12:0.158322 13:0.500074 14:0.51455 15:0.524221 16:0.543357 17:0.479733 18:0.4686 19:0.497143 20:0.468892 21:0.520991 22:0.540988 
1 3:1 11:0.332449 12:0.159721 13:0.524221 14:0.543357 15:0.479733 16:0.4686 17:0.497143 18:0.468892 19:0.520991 20:0.540988 21:0.508306 22:0.513389 
1 3:1 11:0.341313 12:0.158508 13:0.52101 14:0.539256 15:0.498927 16:0.514302 17:0.505333 18:0.445757 19:0.457631 20:0.527948 21:0.518817 22:0.509173 
1 4:1 11:0.339452 12:0.156548 13:0.539256 14:0.498927 15:0.514302 16:0.505333 17:0.445757 18:0.457631 19:0.527948 20:0.518817 21:0.509173 22:0.523324 
1 5:1 11:0.344327 12:0.156314 13:0.500353 14:0.509503 15:0.520143 16:0.510105 17:0.504918 18:0.473613 19:0.501142 20:0.516854 21:0.514779 22:0.534212 
1 4:1 11:0.348016 12:0.152536 13:0.533048 14:0.498986 15:0.507198 16:0.518299 17:0.493271 18:0.463899 19:0.519858 20:0.510182 21:0.50506 22:0.51462 
1 1:1 11:0.346994 12:0.149175 13:0.510182 14:0.50506 15:0.51462 16:0.529462 17:0.479833 18:0.464517 19:0.502075 20:0.512089 21:0.526272 22:0.524589 
1 2:1 11:0.34262 12:0.142364 13:0.499026 14:0.498797 15:0.496324 16:0.462182 17:0.4763 18:0.460214 19:0.495859 20:0.525142 21:0.514441 22:0.483237 
1 10:1 11:0.338929 12:0.142364 13:0.514441 14:0.483237 15:0.482684 16:0.502223 17:0.499455 18:0.456858 19:0.488005 20:0.514535 21:0.49418 22:0.505128 
1 7:1 11:0.329723 12:0.150763 13:0.502449 14:0.487739 15:0.526316 16:0.521318 17:0.483454 18:0.45516 19:0.504907 20:0.539041 21:0.484247 22:0.478743 
1 5:1 11:0.327537 12:0.153142 13:0.484247 14:0.478743 15:0.517972 16:0.505367 17:0.500343 18:0.471214 19:0.500632 20:0.513252 21:0.516348 22:0.513535 
1 2:1 11:0.325499 12:0.153142 13:0.513252 14:0.516348 15:0.513535 16:0.499845 17:0.493874 18:0.461022 19:0.483677 20:0.526128 21:0.527593 22:0.49893 
1 3:1 11:0.323755 12:0.157715 13:0.514983 14:0.512883 15:0.50377 16:0.511647 17:0.507784 18:0.446654 19:0.448404 20:0.520876 21:0.519171 22:0.510899 
1 4:1 11:0.321454 12:0.157715 13:0.512883 14:0.50377 15:0.511647 16:0.507784 17:0.446654 18:0.448404 19:0.520876 20:0.519171 21:0.510899 22:0.513424 
1 4:1 11:0.321479 12:0.158322 13:0.500068 14:0.514272 15:0.512928 16:0.516638 17:0.49947 18:0.466155 19:0.522343 20:0.510354 21:0.501016 22:0.520554 
1 6:1 11:0.323162 12:0.160701 13:0.509998 14:0.521136 15:0.517282 16:0.528244 17:0.50142 18:0.461779 19:0.483071 20:0.467663 21:0.527015 22:0.512104 
1 8:1 11:0.320666 12:0.160701 13:0.517282 14:0.528244 15:0.50142 16:0.461779 17:0.483071 18:0.467663 19:0.527015 20:0.512104 21:0.515355 22:0.523924 
1 5:1 11:0.321519 12:0.161121 13:0.512104 14:0.515355 15:0.523924 16:0.511105 17:0.511625 18:0.471955 19:0.484907 20:0.469885 21:0.522426 22:0.538524 
1 7:1 11:0.319172 12:0.160935 13:0.523924 14:0.511105 15:0.511625 16:0.471955 17:0.484907 18:0.469885 19:0.522426 20:0.538524 21:0.509999 22:0.51176 
1 5:1 11:0.320306 12:0.160935 13:0.509999 14:0.51176 15:0.518809 16:0.50671 17:0.51101 18:0.468269 19:0.505907 20:0.528293 21:0.521331 22:0.530885 
1 10:1 11:0.324271 12:0.162707 13:0.537064 14:0.510974 15:0.509933 16:0.514557 17:0.51116 18:0.458428 19:0.492395 20:0.482141 21:0.510472 22:0.533158 
1 2:1 11:0.32271 12:0.161121 13:0.509933 14:0.514557 15:0.51116 16:0.458428 17:0.492395 18:0.482141 19:0.510472 20:0.533158 21:0.529689 22:0.506224 
1 10:1 11:0.322508 12:0.161729 13:0.529689 14:0.506224 15:0.504132 16:0.51795 17:0.513526 18:0.438325 19:0.461858 20:0.53486 21:0.524538 22:0.522984 
1 1:1 11:0.320731 12:0.161729 13:0.506224 14:0.504132 15:0.51795 16:0.513526 17:0.438325 18:0.461858 19:0.53486 20:0.524538 21:0.522984 22:0.526371 
1 8:1 11:0.326388 12:0.161308 13:0.511762 14:0.521813 15:0.527178 16:0.505449 17:0.49946 18:0.454886 19:0.52673 20:0.516795 21:0.517429 22:0.520964 
1 5:1 11:0.326783 12:0.159115 13:0.516795 14:0.517429 15:0.520964 16:0.504965 17:0.497585 18:0.477059 19:0.503026 20:0.517782 21:0.530949 22:0.514845 
1 10:1 11:0.326281 12:0.160328 13:0.477059 14:0.503026 15:0.517782 16:0.530949 17:0.514845 18:0.457118 19:0.510155 20:0.531907 21:0.508711 22:0.527046 
1 8:1 11:0.326363 12:0.159534 13:0.508711 14:0.527046 15:0.533357 16:0.503032 17:0.494169 18:0.452261 19:0.530414 20:0.527269 21:0.512658 22:0.521881 
1 8:1 11:0.327872 12:0.160514 13:0.509127 14:0.528072 15:0.526341 16:0.502369 17:0.493625 18:0.460498 19:0.531915 20:0.516732 21:0.513404 22:0.52046 
1 1:1 11:0.333552 12:0.156314 13:0.506268 14:0.501463 15:0.51662 16:0.527807 17:0.484475 18:0.469924 19:0.514492 20:0.516815 21:0.518341 22:0.525534 
1 10:1 11:0.333068 12:0.155941 13:0.525534 14:0.497998 15:0.488857 16:0.519582 17:0.506684 18:0.4649 19:0.512343 20:0.525648 21:0.504492 22:0.522206 
1 8:1 11:0.332509 12:0.156314 13:0.504492 14:0.522206 15:0.523899 16:0.503514 17:0.491836 18:0.459959 19:0.533216 20:0.516258 21:0.510798 22:0.520243 
1 6:1 11:0.332448 12:0.154356 13:0.510798 14:0.520243 15:0.503553 16:0.513547 17:0.493059 18:0.466302 19:0.491852 20:0.535259 21:0.532136 22:0.500595 
1 7:1 11:0.33491 12:0.155941 13:0.518806 14:0.506931 15:0.518647 16:0.522598 17:0.49142 18:0.460029 19:0.50858 20:0.532634 21:0.506082 22:0.512306 
1 3:1 11:0.337038 12:0.153142 13:0.521659 14:0.53071 15:0.500014 16:0.509673 17:0.505589 18:0.460674 19:0.512619 20:0.530621 21:0.505179 22:0.507001 
1 10:1 11:0.336402 12:0.153562 13:0.530621 14:0.505179 15:0.507001 16:0.514159 17:0.509093 18:0.455794 19:0.502132 20:0.53189 21:0.513907 22:0.520321 
1 2:1 11:0.337688 12:0.152955 13:0.498764 14:0.517692 15:0.535957 16:0.504963 17:0.494793 18:0.470504 19:0.507827 20:0.526431 21:0.528012 22:0.50449 
1 7:1 11:0.33921 12:0.153562 13:0.525894 14:0.507273 15:0.515225 16:0.522948 17:0.485571 18:0.461754 19:0.515131 20:0.538963 21:0.500212 22:0.512145 
1 7:1 11:0.339672 12:0.152955 13:0.524755 14:0.50942 15:0.52027 16:0.519179 17:0.48479 18:0.460651 19:0.51657 20:0.538575 21:0.498529 22:0.512654 
1 5:1 11:0.343394 12:0.143949 13:0.498883 14:0.505315 15:0.515424 16:0.504692 17:0.498344 18:0.473802 19:0.505041 20:0.513134 21:0.510121 22:0.523304 
1 10:1 11:0.338302 12:0.142783 13:0.523345 14:0.497463 15:0.481617 16:0.475447 17:0.473254 18:0.437785 19:0.482457 20:0.519643 21:0.504076 22:0.490241 
1 5:1 11:0.334694 12:0.142783 13:0.437785 14:0.482457 15:0.519643 16:0.504076 17:0.490241 18:0.444762 19:0.464996 20:0.489755 21:0.507947 22:0.524378 
1 1:1 11:0.330052 12:0.145163 13:0.464996 14:0.489755 15:0.507947 16:0.524378 17:0.476079 18:0.459055 19:0.48457 20:0.450235 21:0.495142 22:0.52042 
1 3:1 11:0.326982 12:0.145163 13:0.507947 14:0.524378 15:0.476079 16:0.459055 17:0.48457 18:0.450235 19:0.495142 20:0.52042 21:0.490894 22:0.485335 
1 10:1 11:0.322123 12:0.143157 13:0.52042 14:0.490894 15:0.485335 16:0.498005 17:0.500276 18:0.436161 19:0.435761 20:0.492091 21:0.5111 22:0.514938 
1 1:1 11:0.319319 12:0.143157 13:0.490894 14:0.485335 15:0.498005 16:0.500276 17:0.436161 18:0.435761 19:0.492091 20:0.5111 21:0.514938 22:0.497025 
1 6:1 11:0.31658 12:0.146143 13:0.435761 14:0.492091 15:0.5111 16:0.514938 17:0.497025 18:0.452044 19:0.470731 20:0.507104 21:0.506921 22:0.502387 
1 2:1 11:0.31228 12:0.145163 13:0.470731 14:0.507104 15:0.506921 16:0.502387 17:0.487329 18:0.461374 19:0.490815 20:0.509784 21:0.500101 22:0.499322 
1 5:1 11:0.306599 12:0.149362 13:0.490767 14:0.498034 15:0.51448 16:0.490645 17:0.493162 18:0.46583 19:0.490124 20:0.497495 21:0.492344 22:0.462665 
1 9:1 11:0.303066 12:0.149362 13:0.493162 14:0.46583 15:0.490124 16:0.497495 17:0.492344 18:0.462665 19:0.484409 20:0.509708 21:0.510421 22:0.501269 
1 6:1 11:0.299948 12:0.153562 13:0.509708 14:0.510421 15:0.501269 16:0.515582 17:0.499464 18:0.45454 19:0.484918 20:0.523827 21:0.527636 22:0.492059 
1 3:1 11:0.296597 12:0.153328 13:0.523827 14:0.527636 15:0.492059 16:0.499278 17:0.490989 18:0.451628 19:0.505746 20:0.528307 21:0.504412 22:0.491426 
1 7:1 11:0.293596 12:0.165088 13:0.509725 14:0.507214 15:0.514588 16:0.51478 17:0.481284 18:0.443074 19:0.431695 20:0.46263 21:0.515744 22:0.520408 
1 8:1 11:0.290414 12:0.165088 13:0.507214 14:0.514588 15:0.51478 16:0.481284 17:0.443074 18:0.431695 19:0.46263 20:0.515744 21:0.520408 22:0.512335 
1 9:1 11:0.288519 12:0.165088 13:0.514588 14:0.51478 15:0.481284 16:0.443074 17:0.431695 18:0.46263 19:0.515744 20:0.520408 21:0.512335 22:0.513484 
1 6:1 11:0.288161 12:0.165508 13:0.520408 14:0.512335 15:0.513484 16:0.524706 17:0.499217 18:0.456958 19:0.486116 20:0.452219 21:0.455061 22:0.509472 
1 8:1 11:0.284905 12:0.165508 13:0.513484 14:0.524706 15:0.499217 16:0.456958 17:0.486116 18:0.452219 19:0.455061 20:0.509472 21:0.51148 22:0.51501 
1 9:1 11:0.282656 12:0.165508 13:0.524706 14:0.499217 15:0.456958 16:0.486116 17:0.452219 18:0.455061 19:0.509472 20:0.51148 21:0.51501 22:0.512391 
1 4:1 11:0.283361 12:0.166487 13:0.529985 14:0.50115 15:0.504803 16:0.513604 17:0.497092 18:0.456174 19:0.521885 20:0.517083 21:0.498348 22:0.511458 
1 1:1 11:0.285496 12:0.172086 13:0.507745 14:0.499589 15:0.509382 16:0.519937 17:0.493656 18:0.458892 19:0.507361 20:0.517061 21:0.519834 22:0.523281 
1 4:1 11:0.292036 12:0.178853 13:0.49196 14:0.518797 15:0.520451 16:0.527369 17:0.497559 18:0.461422 19:0.52446 20:0.521606 21:0.505227 22:0.522914 
1 2:1 11:0.29361 12:0.179272 13:0.505227 14:0.522914 15:0.540834 16:0.518944 17:0.497679 18:0.464325 19:0.51528 20:0.528857 21:0.473071 22:0.508785 
1 5:1 11:0.293409 12:0.179086 13:0.518944 14:0.497679 15:0.464325 16:0.51528 17:0.528857 18:0.473071 19:0.508785 20:0.521043 21:0.524016 22:0.531195 
1 7:1 11:0.297958 12:0.175679 13:0.536245 14:0.521576 15:0.527288 16:0.540522 17:0.501761 18:0.453452 19:0.508412 20:0.524272 21:0.467442 22:0.514698 
1 10:1 11:0.297049 12:0.175679 13:0.540522 14:0.501761 15:0.453452 16:0.508412 17:0.524272 18:0.467442 19:0.514698 20:0.537696 21:0.521483 22:0.529889 
1 5:1 11:0.310352 12:0.170314 13:0.510502 14:0.517648 15:0.52486 16:0.514587 17:0.510557 18:0.469799 19:0.501081 20:0.505097 21:0.462597 22:0.535293 
1 8:1 11:0.308209 12:0.170314 13:0.514587 14:0.510557 15:0.469799 16:0.501081 17:0.505097 18:0.462597 19:0.535293 20:0.523272 21:0.519925 22:0.520172 
1 9:1 11:0.317346 12:0.167514 13:0.525853 14:0.53106 15:0.506901 16:0.509544 17:0.509254 18:0.465488 19:0.507009 20:0.530443 21:0.529206 22:0.513155 
1 7:1 11:0.318092 12:0.164528 13:0.529206 14:0.513155 15:0.527293 16:0.530668 17:0.484349 18:0.455294 19:0.521927 20:0.530098 21:0.462145 22:0.510938 
1 10:1 11:0.317782 12:0.164528 13:0.530668 14:0.484349 15:0.455294 16:0.521927 17:0.530098 18:0.462145 19:0.510938 20:0.512377 21:0.461266 22:0.522949 
1 3:1 11:0.316305 12:0.164528 13:0.521927 14:0.530098 15:0.462145 16:0.510938 17:0.512377 18:0.461266 19:0.522949 20:0.535943 21:0.511974 22:0.521198 
1 5:1 11:0.323718 12:0.163687 13:0.49931 14:0.513661 15:0.522305 16:0.512606 17:0.506256 18:0.472302 19:0.500475 20:0.513483 21:0.52451 22:0.537662 
1 6:1 11:0.325381 12:0.160935 13:0.51463 14:0.518792 15:0.511757 16:0.525643 17:0.510058 18:0.460908 19:0.490614 20:0.530628 21:0.537238 22:0.507231 
1 3:1 11:0.325054 12:0.161308 13:0.530628 14:0.537238 15:0.507231 16:0.5104 17:0.504752 18:0.461937 19:0.517166 20:0.539703 21:0.508659 22:0.510182 
1 5:1 11:0.328034 12:0.161308 13:0.499401 14:0.512224 15:0.525632 16:0.519496 17:0.507805 18:0.470438 19:0.502373 20:0.515912 21:0.51879 22:0.531352 
1 9:1 11:0.330505 12:0.159721 13:0.526672 14:0.533986 15:0.503943 16:0.50358 17:0.507061 18:0.471798 19:0.48341 20:0.481001 21:0.513098 22:0.515515 
1 1:1 11:0.328577 12:0.160141 13:0.503943 14:0.50358 15:0.507061 16:0.471798 17:0.48341 18:0.481001 19:0.513098 20:0.515515 21:0.525889 22:0.52659 
1 10:1 11:0.329486 12:0.160141 13:0.52659 14:0.505931 15:0.501158 16:0.52225 17:0.520905 18:0.458281 19:0.505021 20:0.525123 21:0.506445 22:0.517531 
1 7:1 11:0.328646 12:0.161308 13:0.525123 14:0.506445 15:0.517531 16:0.519777 17:0.490568 18:0.464902 19:0.516832 20:0.541366 21:0.505323 22:0.513707 
1 3:1 11:0.328631 12:0.161308 13:0.516832 14:0.541366 15:0.505323 16:0.513707 17:0.506056 18:0.460226 19:0.519028 20:0.534437 21:0.512364 22:0.510734 
1 4:1 11:0.330863 12:0.159534 13:0.535896 14:0.500412 15:0.512246 16:0.526587 17:0.505233 18:0.46426 19:0.520719 20:0.510208 21:0.504712 22:0.518965 
1 2:1 11:0.330959 12:0.158741 13:0.504712 14:0.518965 15:0.540122 16:0.501062 17:0.492433 18:0.47281 19:0.492375 20:0.471347 21:0.501356 22:0.47916 
1 4:1 11:0.329005 12:0.158741 13:0.540122 14:0.501062 15:0.492433 16:0.47281 17:0.492375 18:0.471347 19:0.501356 20:0.47916 21:0.490577 22:0.523744 
1 6:1 11:0.327691 12:0.158741 13:0.492433 14:0.47281 15:0.492375 16:0.471347 17:0.501356 18:0.47916 19:0.490577 20:0.523744 21:0.539346 22:0.50377 
1 3:1 11:0.327872 12:0.158741 13:0.523744 14:0.539346 15:0.50377 16:0.518224 17:0.512023 18:0.468244 19:0.521839 20:0.532532 21:0.511651 22:0.510044 
1 4:1 11:0.338894 12:0.154542 13:0.533536 14:0.493067 15:0.511421 16:0.525696 17:0.49434 18:0.460233 19:0.527381 20:0.518514 21:0.492033 22:0.454113 
1 8:1 11:0.337495 12:0.153328 13:0.49434 14:0.460233 15:0.527381 16:0.518514 17:0.492033 18:0.454113 19:0.52407 20:0.513153 21:0.512712 22:0.517865 
1 1:1 11:0.338566 12:0.154729 13:0.504272 14:0.503914 15:0.522565 16:0.52719 17:0.482278 18:0.452821 19:0.458733 20:0.512271 21:0.530795 22:0.524619 
1 2:1 11:0.336737 12:0.154729 13:0.503914 14:0.522565 15:0.52719 16:0.482278 17:0.452821 18:0.458733 19:0.512271 20:0.530795 21:0.524619 22:0.508481 
1 4:1 11:0.337994 12:0.152955 13:0.528894 14:0.501654 15:0.520623 16:0.523468 17:0.488474 18:0.459616 19:0.521121 20:0.506599 21:0.491716 22:0.523562 
1 10:1 11:0.338363 12:0.154729 13:0.52728 14:0.50308 15:0.506539 16:0.513249 17:0.497852 18:0.459653 19:0.505419 20:0.527059 21:0.501655 22:0.518031 
1 7:1 11:0.337556 12:0.153935 13:0.527059 14:0.501655 15:0.518031 16:0.521508 17:0.49715 18:0.458939 19:0.509701 20:0.539108 21:0.510136 22:0.511574 
1 5:1 11:0.337227 12:0.154542 13:0.510136 14:0.511574 15:0.519572 16:0.504226 17:0.509058 18:0.446552 19:0.442243 20:0.456787 21:0.523361 22:0.546607 
1 6:1 11:0.334767 12:0.154542 13:0.511574 14:0.519572 15:0.504226 16:0.509058 17:0.446552 18:0.442243 19:0.456787 20:0.523361 21:0.546607 22:0.505149 
1 7:1 11:0.332847 12:0.154542 13:0.519572 14:0.504226 15:0.509058 16:0.446552 17:0.442243 18:0.456787 19:0.523361 20:0.546607 21:0.505149 22:0.510398 
1 7:1 11:0.34077 12:0.154542 13:0.520766 14:0.507721 15:0.521509 16:0.52508 17:0.485883 18:0.462728 19:0.516849 20:0.539249 21:0.497288 22:0.509353 
1 5:1 11:0.34119 12:0.153142 13:0.497288 14:0.509353 15:0.524938 16:0.507706 17:0.505575 18:0.46894 19:0.503083 20:0.517589 21:0.513985 22:0.539102 
1 6:1 11:0.342324 12:0.154356 13:0.507206 14:0.517716 15:0.512315 16:0.52376 17:0.505737 18:0.469356 19:0.497123 20:0.525604 21:0.534161 22:0.502574 
1 2:1 11:0.341496 12:0.153142 13:0.497123 14:0.525604 15:0.534161 16:0.502574 17:0.492162 18:0.470048 19:0.508936 20:0.530152 21:0.52748 22:0.513063 
1 6:1 11:0.343254 12:0.154542 13:0.514122 14:0.530937 15:0.5106 16:0.514536 17:0.499358 18:0.448488 19:0.44447 20:0.519496 21:0.543396 22:0.482829 
1 7:1 11:0.340913 12:0.154542 13:0.530937 14:0.5106 15:0.514536 16:0.499358 17:0.448488 18:0.44447 19:0.519496 20:0.543396 21:0.482829 22:0.453365 
1 1:1 11:0.339782 12:0.154542 13:0.448488 14:0.44447 15:0.519496 16:0.543396 17:0.482829 18:0.453365 19:0.464917 20:0.513457 21:0.514021 22:0.477791 
1 2:1 11:0.338191 12:0.154542 13:0.44447 14:0.519496 15:0.543396 16:0.482829 17:0.453365 18:0.464917 19:0.513457 20:0.514021 21:0.477791 22:0.509612 
1 5:1 11:0.337561 12:0.154542 13:0.482829 14:0.453365 15:0.464917 16:0.513457 17:0.514021 18:0.477791 19:0.509612 20:0.50981 21:0.455492 22:0.52788 
1 8:1 11:0.335786 12:0.154729 13:0.513457 14:0.514021 15:0.477791 16:0.509612 17:0.50981 18:0.455492 19:0.52788 20:0.516532 21:0.523819 22:0.523655 
1 9:1 11:0.343914 12:0.156314 13:0.515509 14:0.522198 15:0.50557 16:0.500889 17:0.507157 18:0.479299 19:0.483143 20:0.478909 21:0.510167 22:0.516173 
1 1:1 11:0.341956 12:0.153562 13:0.50557 14:0.500889 15:0.507157 16:0.479299 17:0.483143 18:0.478909 19:0.510167 20:0.516173 21:0.522012 22:0.525378 
1 2:1 11:0.343054 12:0.153142 13:0.50704 14:0.523552 15:0.537807 16:0.495692 17:0.495744 18:0.472116 19:0.504782 20:0.523745 21:0.527915 22:0.503589 
1 5:1 11:0.34439 12:0.151556 13:0.497899 14:0.513437 15:0.528317 16:0.509359 17:0.505641 18:0.466695 19:0.495271 20:0.508023 21:0.513544 22:0.508908 
1 10:1 11:0.342717 12:0.151556 13:0.466695 14:0.495271 15:0.508023 16:0.513544 17:0.508908 18:0.465892 19:0.503576 20:0.527446 21:0.505257 22:0.518168 
1 6:1 11:0.343852 12:0.152955 13:0.509239 14:0.518872 15:0.504935 16:0.517978 17:0.500841 18:0.47098 19:0.495568 20:0.517195 21:0.53506 22:0.501341 
1 2:1 11:0.342521 12:0.152723 13:0.495568 14:0.517195 15:0.53506 16:0.501341 17:0.493305 18:0.465635 19:0.499007 20:0.525628 21:0.534378 22:0.509938 
1 8:1 11:0.341564 12:0.154542 13:0.499007 14:0.525628 15:0.534378 16:0.509938 17:0.49263 18:0.456629 19:0.530394 20:0.507164 21:0.511312 22:0.528664 
1 7:1 11:0.341945 12:0.152536 13:0.528664 14:0.511098 15:0.520857 16:0.521864 17:0.481588 18:0.46311 19:0.518587 20:0.533155 21:0.5067 22:0.518437 
1 3:1 11:0.341394 12:0.154542 13:0.518587 14:0.533155 15:0.5067 16:0.518437 17:0.507531 18:0.444745 19:0.4576 20:0.527724 21:0.519783 22:0.511571 
1 4:1 11:0.339532 12:0.154542 13:0.533155 14:0.5067 15:0.518437 16:0.507531 17:0.444745 18:0.4576 19:0.527724 20:0.519783 21:0.511571 22:0.515655 
1 3:1 11:0.340455 12:0.153935 13:0.515655 14:0.540715 15:0.505716 16:0.50744 17:0.500259 18:0.461639 19:0.518082 20:0.529625 21:0.511027 22:0.513062 
1 1:1 11:0.340093 12:0.154356 13:0.511027 14:0.513062 15:0.517382 16:0.531948 17:0.476954 18:0.450848 19:0.467895 20:0.528357 21:0.53276 22:0.523799 
1 2:1 11:0.338616 12:0.154356 13:0.513062 14:0.517382 15:0.531948 16:0.476954 17:0.450848 18:0.467895 19:0.528357 20:0.53276 21:0.523799 22:0.511942 
1 2:1 11:0.343896 12:0.153562 13:0.5068 14:0.522384 15:0.538909 16:0.499599 17:0.493979 18:0.472907 19:0.511587 20:0.52627 21:0.524665 22:0.48834 
1 7:1 11:0.342647 12:0.154729 13:0.472907 14:0.511587 15:0.52627 16:0.524665 17:0.48834 18:0.452101 19:0.446423 20:0.472571 21:0.489437 22:0.483378 
1 8:1 11:0.340375 12:0.154729 13:0.511587 14:0.52627 15:0.524665 16:0.48834 17:0.452101 18:0.446423 19:0.472571 20:0.489437 21:0.483378 22:0.520127 
1 9:1 11:0.339071 12:0.154729 13:0.52627 14:0.524665 15:0.48834 16:0.452101 17:0.446423 18:0.472571 19:0.489437 20:0.483378 21:0.520127 22:0.511339 
1 1:1 11:0.337497 12:0.155522 13:0.48834 14:0.452101 15:0.446423 16:0.472571 17:0.489437 18:0.483378 19:0.520127 20:0.511339 21:0.524353 22:0.529489 
1 3:1 11:0.340214 12:0.156129 13:0.525915 14:0.546441 15:0.506679 16:0.511068 17:0.498321 18:0.45472 19:0.513789 20:0.533387 21:0.504523 22:0.506784 
1 8:1 11:0.344744 12:0.152955 13:0.510596 14:0.519009 15:0.521465 16:0.497129 17:0.491619 18:0.464385 19:0.533473 20:0.509221 21:0.492247 22:0.469715 
1 2:1 11:0.343833 12:0.152955 13:0.491619 14:0.464385 15:0.533473 16:0.509221 17:0.492247 18:0.469715 19:0.506212 20:0.52796 21:0.527097 22:0.500397 
1 8:1 11:0.342824 12:0.152955 13:0.506212 14:0.52796 15:0.527097 16:0.500397 17:0.495239 18:0.459841 19:0.525193 20:0.50306 21:0.513562 22:0.5298 
1 4:1 11:0.344812 12:0.149362 13:0.528147 14:0.500823 15:0.509812 16:0.518018 17:0.495918 18:0.467203 19:0.521226 20:0.509519 21:0.502363 22:0.520481 
1 2:1 11:0.346442 12:0.14857 13:0.507073 14:0.517362 15:0.532147 16:0.498013 17:0.490051 18:0.467811 19:0.506865 20:0.526973 21:0.523512 22:0.504876 
1 1:1 11:0.345939 12:0.150949 13:0.504876 14:0.504063 15:0.513848 16:0.527848 17:0.476253 18:0.468036 19:0.514754 20:0.510596 21:0.521742 22:0.519232 
1 3:1 11:0.345803 12:0.140777 13:0.51134 14:0.523803 15:0.503298 16:0.507386 17:0.499544 18:0.459534 19:0.511573 20:0.523848 21:0.498642 22:0.491682 
1 8:1 11:0.334471 12:0.141384 13:0.495522 14:0.506732 15:0.507069 16:0.485927 17:0.477557 18:0.448793 19:0.510348 20:0.501035 21:0.494835 22:0.505372 
1 4:1 11:0.327708 12:0.142596 13:0.518264 14:0.485826 15:0.488281 16:0.501591 17:0.48267 18:0.456288 19:0.486622 20:0.464417 21:0.48102 22:0.512599 
1 6:1 11:0.325248 12:0.142596 13:0.488281 14:0.501591 15:0.48267 16:0.456288 17:0.486622 18:0.464417 19:0.48102 20:0.512599 21:0.511182 22:0.493147 
1 6:1 11:0.32117 12:0.143949 13:0.497712 14:0.505206 15:0.504746 16:0.519662 17:0.489182 18:0.454133 19:0.471811 20:0.508625 21:0.514951 22:0.483836 
1 10:1 11:0.313986 12:0.146143 13:0.512758 14:0.503624 15:0.481759 16:0.470652 17:0.507874 18:0.449683 19:0.477027 20:0.519032 21:0.500082 22:0.508971 
1 7:1 11:0.310049 12:0.146376 13:0.519032 14:0.500082 15:0.508971 16:0.507698 17:0.482467 18:0.457618 19:0.498222 20:0.499707 21:0.442805 22:0.442141 
1 10:1 11:0.306765 12:0.146376 13:0.507698 14:0.482467 15:0.457618 16:0.498222 17:0.499707 18:0.442805 19:0.442141 20:0.501282 21:0.511251 22:0.504994 
1 1:1 11:0.304114 12:0.149969 13:0.482467 14:0.457618 15:0.498222 16:0.499707 17:0.442805 18:0.442141 19:0.501282 20:0.511251 21:0.504994 22:0.463434 
1 5:1 11:0.302134 12:0.149969 13:0.442805 14:0.442141 15:0.501282 16:0.511251 17:0.504994 18:0.463434 19:0.494156 20:0.507871 21:0.506186 22:0.519719 
1 2:1 11:0.297311 12:0.157528 13:0.493586 14:0.51123 15:0.524256 16:0.494908 17:0.488097 18:0.462054 19:0.499528 20:0.525402 21:0.495796 22:0.457844 
1 6:1 11:0.295199 12:0.158322 13:0.488097 14:0.462054 15:0.499528 16:0.525402 17:0.495796 18:0.457844 19:0.4944 20:0.523907 21:0.522654 22:0.498143 
1 2:1 11:0.293333 12:0.159534 13:0.494136 14:0.510865 15:0.524418 16:0.501055 17:0.486285 18:0.458565 19:0.508824 20:0.516563 21:0.463446 22:0.49935 
1 5:1 11:0.291939 12:0.159534 13:0.501055 14:0.486285 15:0.458565 16:0.508824 17:0.516563 18:0.463446 19:0.49935 20:0.51529 21:0.515891 22:0.51972 
1 1:1 11:0.303716 12:0.171667 13:0.513268 14:0.517287 15:0.524732 16:0.532897 17:0.489514 18:0.468176 19:0.512123 20:0.528755 21:0.532864 22:0.526325 
1 4:1 11:0.317467 12:0.167701 13:0.539694 14:0.507647 15:0.511597 16:0.520634 17:0.500626 18:0.46893 19:0.525273 20:0.513206 21:0.509942 22:0.513966 
1 9:1 11:0.317195 12:0.165088 13:0.46893 14:0.525273 15:0.513206 16:0.509942 17:0.513966 18:0.46738 19:0.501557 20:0.524676 21:0.522564 22:0.518867 
1 8:1 11:0.321473 12:0.163128 13:0.511527 14:0.52702 15:0.522623 16:0.496645 17:0.49545 18:0.460853 19:0.513932 20:0.47098 21:0.500737 22:0.526802 
1 10:1 11:0.320306 12:0.163128 13:0.522623 14:0.496645 15:0.49545 16:0.460853 17:0.513932 18:0.47098 19:0.500737 20:0.526802 21:0.512352 22:0.528928 
1 9:1 11:0.326594 12:0.160328 13:0.525703 14:0.522752 15:0.50281 16:0.499486 17:0.511765 18:0.470309 19:0.483749 20:0.482019 21:0.514192 22:0.517971 
1 1:1 11:0.3247 12:0.160328 13:0.50281 14:0.499486 15:0.511765 16:0.470309 17:0.483749 18:0.482019 19:0.514192 20:0.517971 21:0.520612 22:0.523586 
1 1:1 11:0.325406 12:0.161915 13:0.506703 14:0.502159 15:0.519771 16:0.536781 17:0.484645 18:0.465026 19:0.510143 20:0.515843 21:0.52495 22:0.523459 
1 1:1 11:0.325331 12:0.163921 13:0.503896 14:0.505839 15:0.5172 16:0.520934 17:0.487686 18:0.461357 19:0.509064 20:0.519715 21:0.529706 22:0.503339 
1 6:1 11:0.325149 12:0.162895 13:0.461357 14:0.509064 15:0.519715 16:0.529706 17:0.503339 18:0.470074 19:0.491921 20:0.522877 21:0.535001 22:0.508942 
1 4:1 11:0.328457 12:0.163128 13:0.533364 14:0.503329 15:0.511666 16:0.52451 17:0.498208 18:0.463976 19:0.504646 20:0.458828 21:0.4442 22:0.518779 
1 6:1 11:0.326483 12:0.163128 13:0.511666 14:0.52451 15:0.498208 16:0.463976 17:0.504646 18:0.458828 19:0.4442 20:0.518779 21:0.542192 22:0.503985 
1 7:1 11:0.324037 12:0.163128 13:0.52451 14:0.498208 15:0.463976 16:0.504646 17:0.458828 18:0.4442 19:0.518779 20:0.542192 21:0.503985 22:0.512279 
1 3:1 11:0.32804 12:0.161495 13:0.513312 14:0.533841 15:0.498907 16:0.511007 17:0.50517 18:0.461546 19:0.519878 20:0.514949 21:0.451525 22:0.435389 
1 6:1 11:0.326667 12:0.161495 13:0.511007 14:0.50517 15:0.461546 16:0.519878 17:0.514949 18:0.451525 19:0.435389 20:0.461059 21:0.539373 22:0.517506 
1 7:1 11:0.323881 12:0.163501 13:0.50517 14:0.461546 15:0.519878 16:0.514949 17:0.451525 18:0.435389 19:0.461059 20:0.539373 21:0.517506 22:0.517035 
1 8:1 11:0.322078 12:0.163501 13:0.461546 14:0.519878 15:0.514949 16:0.451525 17:0.435389 18:0.461059 19:0.539373 20:0.517506 21:0.517035 22:0.52913 
1 4:1 11:0.32796 12:0.162521 13:0.53223 14:0.498045 15:0.515834 16:0.523358 17:0.498905 18:0.459728 19:0.503334 20:0.479537 21:0.503669 22:0.53307 
1 6:1 11:0.326734 12:0.162521 13:0.515834 14:0.523358 15:0.498905 16:0.459728 17:0.503334 18:0.479537 19:0.503669 20:0.53307 21:0.534944 22:0.481931 
1 1:1 11:0.326307 12:0.160514 13:0.479537 14:0.503669 15:0.53307 16:0.534944 17:0.481931 18:0.471985 19:0.495901 20:0.467375 21:0.523115 22:0.538927 
1 3:1 11:0.324317 12:0.160514 13:0.53307 14:0.534944 15:0.481931 16:0.471985 17:0.495901 18:0.467375 19:0.523115 20:0.538927 21:0.515122 22:0.514079 
1 3:1 11:0.326764 12:0.160328 13:0.522843 14:0.533372 15:0.502897 16:0.519033 17:0.507376 18:0.459576 19:0.518949 20:0.537972 21:0.512684 22:0.509357 
1 2:1 11:0.328545 12:0.160328 13:0.509357 14:0.52014 15:0.536297 16:0.50488 17:0.500153 18:0.471594 19:0.51881 20:0.530295 21:0.526598 22:0.506377 
1 3:1 11:0.334323 12:0.156735 13:0.518239 14:0.529915 15:0.499621 16:0.515551 17:0.506987 18:0.457449 19:0.504423 20:0.481745 21:0.50078 22:0.516278 
1 5:1 11:0.33324 12:0.156548 13:0.499621 14:0.515551 15:0.506987 16:0.457449 17:0.504423 18:0.481745 19:0.50078 20:0.516278 21:0.517022 22:0.530183 
1 3:1 11:0.337521 12:0.156129 13:0.522401 14:0.5329 15:0.501181 16:0.507809 17:0.503929 18:0.460031 19:0.503755 20:0.477324 21:0.496582 22:0.511152 
1 5:1 11:0.336253 12:0.156735 13:0.501181 14:0.507809 15:0.503929 16:0.460031 17:0.503755 18:0.477324 19:0.496582 20:0.511152 21:0.522005 22:0.532616 
1 10:1 11:0.33779 12:0.157342 13:0.527407 14:0.501414 15:0.501554 16:0.511103 17:0.50622 18:0.462661 19:0.5033 20:0.530498 21:0.51346 22:0.520623 
1 3:1 11:0.33866 12:0.155336 13:0.512999 14:0.536813 15:0.506641 16:0.510003 17:0.503432 18:0.458193 19:0.49969 20:0.478542 21:0.501899 22:0.517043 
1 5:1 11:0.337289 12:0.155336 13:0.506641 14:0.510003 15:0.503432 16:0.458193 17:0.49969 18:0.478542 19:0.501899 20:0.517043 21:0.518129 22:0.539147 
1 2:1 11:0.342837 12:0.156735 13:0.502893 14:0.518662 15:0.533604 16:0.497424 17:0.493555 18:0.476328 19:0.5094 20:0.524713 21:0.524005 22:0.501877 
1 2:1 11:0.345682 12:0.153749 13:0.504324 14:0.515076 15:0.535509 16:0.500298 17:0.49362 18:0.468507 19:0.510846 20:0.528406 21:0.501812 22:0.455001 
1 6:1 11:0.344451 12:0.15235 13:0.49362 14:0.468507 15:0.510846 16:0.528406 17:0.501812 18:0.455001 19:0.449529 20:0.509647 21:0.479415 22:0.497568 
1 7:1 11:0.342305 12:0.15235 13:0.468507 14:0.510846 15:0.528406 16:0.501812 17:0.455001 18:0.449529 19:0.509647 20:0.479415 21:0.497568 22:0.524912 
1 9:1 11:0.341349 12:0.156314 13:0.528406 14:0.501812 15:0.455001 16:0.449529 17:0.509647 18:0.479415 19:0.497568 20:0.524912 21:0.529005 22:0.513763 
1 7:1 11:0.340976 12:0.156314 13:0.529005 14:0.513763 15:0.519604 16:0.528089 17:0.492129 18:0.443469 19:0.449282 20:0.543111 21:0.510909 22:0.511896 
1 8:1 11:0.338802 12:0.156314 13:0.513763 14:0.519604 15:0.528089 16:0.492129 17:0.443469 18:0.449282 19:0.543111 20:0.510909 21:0.511896 22:0.524256 
1 6:1 11:0.347583 12:0.152163 13:0.506898 14:0.521465 15:0.510076 16:0.519102 17:0.50052 18:0.466389 19:0.491303 20:0.510092 21:0.479786 22:0.493673 
1 9:1 11:0.346078 12:0.153562 13:0.519102 14:0.50052 15:0.466389 16:0.491303 17:0.510092 18:0.479786 19:0.493673 20:0.520178 21:0.522228 22:0.493697 
1 4:1 11:0.344594 12:0.153562 13:0.479786 14:0.493673 15:0.520178 16:0.522228 17:0.493697 18:0.466778 19:0.523413 20:0.510991 21:0.48882 22:0.514046 
1 3:1 11:0.343456 12:0.149969 13:0.514046 14:0.537938 15:0.493679 16:0.498174 17:0.502862 18:0.46529 19:0.517931 20:0.519399 21:0.485763 22:0.465549 
1 7:1 11:0.341945 12:0.147963 13:0.502862 14:0.46529 15:0.517931 16:0.519399 17:0.485763 18:0.465549 19:0.513997 20:0.538708 21:0.500636 22:0.507708 
1 4:1 11:0.341761 12:0.147963 13:0.538708 14:0.500636 15:0.507708 16:0.520442 17:0.501348 18:0.463547 19:0.510991 20:0.511039 21:0.50534 22:0.513997 
1 4:1 11:0.341189 12:0.150155 13:0.532165 14:0.497736 15:0.50285 16:0.519418 17:0.498961 18:0.465438 19:0.500678 20:0.478051 21:0.493951 22:0.522496 
1 6:1 11:0.339845 12:0.150155 13:0.50285 14:0.519418 15:0.498961 16:0.465438 17:0.500678 18:0.478051 19:0.493951 20:0.522496 21:0.53999 22:0.499485 
1 1:1 11:0.341121 12:0.151929 13:0.504543 14:0.502916 15:0.516669 16:0.528099 17:0.479336 18:0.471318 19:0.517355 20:0.509657 21:0.513311 22:0.506667 
1 6:1 11:0.340406 12:0.151929 13:0.471318 14:0.517355 15:0.509657 16:0.513311 17:0.506667 18:0.470508 19:0.486059 20:0.465782 21:0.530462 22:0.513441 
1 8:1 11:0.338051 12:0.151929 13:0.509657 14:0.513311 15:0.506667 16:0.470508 17:0.486059 18:0.465782 19:0.530462 20:0.513441 21:0.516088 22:0.519845 
1 1:1 11:0.342559 12:0.156735 13:0.509925 14:0.50851 15:0.512562 16:0.528716 17:0.484238 18:0.470035 19:0.515768 20:0.514499 21:0.524001 22:0.525744 
1 3:1 11:0.343982 12:0.155149 13:0.518706 14:0.537176 15:0.501575 16:0.514237 17:0.503094 18:0.45968 19:0.516237 20:0.535418 21:0.506312 22:0.501624 
1 2:1 11:0.347399 12:0.154729 13:0.503048 14:0.513353 15:0.535984 16:0.498752 17:0.494545 18:0.474384 19:0.509838 20:0.526568 21:0.524413 22:0.501867 
1 9:1 11:0.347573 12:0.156129 13:0.526568 14:0.524413 15:0.501867 16:0.506827 17:0.509068 18:0.477425 19:0.499556 20:0.519635 21:0.528974 22:0.512601 
1 9:1 11:0.34773 12:0.156314 13:0.516571 14:0.519723 15:0.502119 16:0.503028 17:0.502227 18:0.473095 19:0.497306 20:0.525921 21:0.522198 22:0.496474 
1 4:1 11:0.346683 12:0.156129 13:0.473095 14:0.497306 15:0.525921 16:0.522198 17:0.496474 18:0.466357 19:0.524447 20:0.499623 21:0.46037 22:0.512822 
1 7:1 11:0.345298 12:0.156129 13:0.522198 14:0.496474 15:0.466357 16:0.524447 17:0.499623 18:0.46037 19:0.512822 20:0.543255 21:0.476811 22:0.466955 
1 1:1 11:0.344206 12:0.156129 13:0.499623 14:0.46037 15:0.512822 16:0.543255 17:0.476811 18:0.466955 19:0.512687 20:0.521168 21:0.533744 22:0.520614 
1 5:1 11:0.346938 12:0.153935 13:0.496302 14:0.514135 15:0.52594 16:0.513609 17:0.500471 18:0.468814 19:0.497888 20:0.513545 21:0.508847 22:0.538519 
1 1:1 11:0.345691 12:0.153935 13:0.497888 14:0.513545 15:0.508847 16:0.538519 17:0.481822 18:0.469589 19:0.511021 20:0.51357 21:0.503166 22:0.474036 
1 5:1 11:0.344672 12:0.154542 13:0.481822 14:0.469589 15:0.511021 16:0.51357 17:0.503166 18:0.474036 19:0.500649 20:0.506067 21:0.459672 22:0.533187 
1 8:1 11:0.342607 12:0.154542 13:0.51357 14:0.503166 15:0.474036 16:0.500649 17:0.506067 18:0.459672 19:0.533187 20:0.488996 21:0.450129 22:0.460856 
1 1:1 11:0.340754 12:0.154542 13:0.500649 14:0.506067 15:0.459672 16:0.533187 17:0.488996 18:0.450129 19:0.460856 20:0.513469 21:0.534402 22:0.531911 
1 2:1 11:0.339014 12:0.154542 13:0.506067 14:0.459672 15:0.533187 16:0.488996 17:0.450129 18:0.460856 19:0.513469 20:0.534402 21:0.531911 22:0.498773 
1 9:1 11:0.339621 12:0.155522 13:0.534402 14:0.531911 15:0.498773 16:0.507499 17:0.514696 18:0.466673 19:0.475509 20:0.48057 21:0.517538 22:0.51885 
1 1:1 11:0.337418 12:0.155522 13:0.498773 14:0.507499 15:0.514696 16:0.466673 17:0.475509 18:0.48057 19:0.517538 20:0.51885 21:0.522714 22:0.525239 
1 7:1 11:0.336887 12:0.155149 13:0.517538 14:0.51885 15:0.522714 16:0.525239 17:0.485356 18:0.460101 19:0.516935 20:0.546319 21:0.502604 22:0.521698 
1 10:1 11:0.339603 12:0.152536 13:0.522363 14:0.505951 15:0.513493 16:0.51374 17:0.516189 18:0.452806 19:0.502601 20:0.527465 21:0.508957 22:0.520934 
1 7:1 11:0.33874 12:0.152536 13:0.527465 14:0.508957 15:0.520934 16:0.520502 17:0.48682 18:0.460941 19:0.512049 20:0.538149 21:0.507104 22:0.510692 
1 3:1 11:0.340509 12:0.146562 13:0.511342 14:0.536689 15:0.497267 16:0.508166 17:0.501467 18:0.461138 19:0.51093 20:0.526951 21:0.505963 22:0.505582 
1 1:1 11:0.334975 12:0.145582 13:0.486284 14:0.493564 15:0.501234 16:0.514255 17:0.471335 18:0.454041 19:0.497789 20:0.494629 21:0.454709 22:0.503099 
1 4:1 11:0.332129 12:0.147169 13:0.514255 14:0.471335 15:0.454041 16:0.497789 17:0.494629 18:0.454709 19:0.503099 20:0.499898 21:0.496183 22:0.508645 
1 2:1 11:0.324087 12:0.148943 13:0.488574 14:0.498924 15:0.523526 16:0.491178 17:0.480744 18:0.458236 19:0.492839 20:0.513733 21:0.511396 22:0.491997 
1 6:1 11:0.319367 12:0.151556 13:0.500284 14:0.509842 15:0.494732 16:0.506202 17:0.487739 18:0.463507 19:0.482871 20:0.509669 21:0.496398 22:0.453776 
1 10:1 11:0.315947 12:0.153562 13:0.487739 14:0.463507 15:0.482871 16:0.509669 17:0.496398 18:0.453776 19:0.489606 20:0.517864 21:0.486333 22:0.457693 
1 4:1 11:0.312849 12:0.152955 13:0.496398 14:0.453776 15:0.489606 16:0.517864 17:0.486333 18:0.457693 19:0.51063 20:0.51007 21:0.495846 22:0.503454 
1 6:1 11:0.309784 12:0.154915 13:0.503984 14:0.508415 15:0.501282 16:0.512694 17:0.482923 18:0.454327 19:0.477774 20:0.513935 21:0.52508 22:0.496733 
1 4:1 11:0.301102 12:0.157715 13:0.501487 14:0.504532 15:0.500621 16:0.509001 17:0.489649 18:0.45812 19:0.491829 20:0.460602 21:0.486022 22:0.523866 
1 6:1 11:0.298534 12:0.159721 13:0.500621 14:0.509001 15:0.489649 16:0.45812 17:0.491829 18:0.460602 19:0.486022 20:0.523866 21:0.522715 22:0.497299 
1 4:1 11:0.297333 12:0.166114 13:0.519936 14:0.50576 15:0.502834 16:0.512997 17:0.498628 18:0.462135 19:0.515676 20:0.511421 21:0.507123 22:0.522299 
1 10:1 11:0.297173 12:0.167514 13:0.515676 14:0.511421 15:0.507123 16:0.522299 17:0.517787 18:0.465822 19:0.511739 20:0.513772 21:0.467886 22:0.523396 
1 3:1 11:0.295984 12:0.167514 13:0.522299 14:0.517787 15:0.465822 16:0.511739 17:0.513772 18:0.467886 19:0.523396 20:0.529203 21:0.508962 22:0.500643 
1 8:1 11:0.295295 12:0.169286 13:0.467886 14:0.523396 15:0.529203 16:0.508962 17:0.500643 18:0.457813 19:0.512674 20:0.476481 21:0.506091 22:0.534698 
1 10:1 11:0.294228 12:0.169286 13:0.529203 14:0.508962 15:0.500643 16:0.457813 17:0.512674 18:0.476481 19:0.506091 20:0.534698 21:0.526569 22:0.527052 
1 6:1 11:0.295235 12:0.169893 13:0.506091 14:0.534698 15:0.526569 16:0.527052 17:0.507118 18:0.466538 19:0.488405 20:0.458466 21:0.470136 22:0.519942 
1 8:1 11:0.292397 12:0.169893 13:0.526569 14:0.527052 15:0.507118 16:0.466538 17:0.488405 18:0.458466 19:0.470136 20:0.519942 21:0.521578 22:0.532185 
1 9:1 11:0.290829 12:0.169893 13:0.527052 14:0.507118 15:0.466538 16:0.488405 17:0.458466 18:0.470136 19:0.519942 20:0.521578 21:0.532185 22:0.525946 
1 10:1 11:0.302803 12:0.17428 13:0.530149 14:0.509588 15:0.510279 16:0.524662 17:0.519318 18:0.458075 19:0.504826 20:0.537529 21:0.522666 22:0.530237 
1 9:1 11:0.317499 12:0.171107 13:0.530258 14:0.530797 15:0.507709 16:0.515893 17:0.512126 18:0.46728 19:0.49832 20:0.518404 21:0.532369 22:0.519091 
1 8:1 11:0.318474 12:0.167887 13:0.519091 14:0.521917 15:0.526846 16:0.516071 17:0.498788 18:0.458818 19:0.536024 20:0.516114 21:0.520175 22:0.524152 
1 4:1 11:0.322886 12:0.166721 13:0.53739 14:0.497792 15:0.502806 16:0.525995 17:0.50102 18:0.449661 19:0.466959 20:0.517208 21:0.524104 22:0.525436 
1 5:1 11:0.321307 12:0.166114 13:0.497792 14:0.502806 15:0.525995 16:0.50102 17:0.449661 18:0.466959 19:0.517208 20:0.524104 21:0.525436 22:0.536161 
1 6:1 11:0.334497 12:0.160935 13:0.511059 14:0.524672 15:0.515485 16:0.526233 17:0.50447 18:0.464854 19:0.493703 20:0.524375 21:0.530521 22:0.505615 
1 10:1 11:0.336805 12:0.158741 13:0.525228 14:0.509159 15:0.507703 16:0.523094 17:0.513081 18:0.455895 19:0.505154 20:0.530343 21:0.497082 22:0.468154 
1 4:1 11:0.335724 12:0.157342 13:0.513081 14:0.455895 15:0.505154 16:0.530343 17:0.497082 18:0.468154 19:0.52478 20:0.517455 21:0.507457 22:0.508081 
1 9:1 11:0.335681 12:0.157715 13:0.468154 14:0.52478 15:0.517455 16:0.507457 17:0.508081 18:0.477704 19:0.486787 20:0.479729 21:0.510624 22:0.518422 
1 1:1 11:0.333855 12:0.157715 13:0.517455 14:0.507457 15:0.508081 16:0.477704 17:0.486787 18:0.479729 19:0.510624 20:0.518422 21:0.530034 22:0.525635 
1 1:1 11:0.341345 12:0.158741 13:0.50309 14:0.502681 15:0.520285 16:0.539496 17:0.480026 18:0.470786 19:0.515205 20:0.515677 21:0.505857 22:0.450349 
1 5:1 11:0.339763 12:0.158741 13:0.480026 14:0.470786 15:0.515205 16:0.515677 17:0.505857 18:0.450349 19:0.461782 20:0.504886 21:0.520977 22:0.476824 
1 6:1 11:0.338053 12:0.158741 13:0.470786 14:0.515205 15:0.515677 16:0.505857 17:0.450349 18:0.461782 19:0.504886 20:0.520977 21:0.476824 22:0.503778 
1 9:1 11:0.337325 12:0.158741 13:0.505857 14:0.450349 15:0.461782 16:0.504886 17:0.520977 18:0.476824 19:0.503778 20:0.527846 21:0.527483 22:0.512993 
1 10:1 11:0.342573 12:0.154915 13:0.526186 14:0.5009 15:0.501421 16:0.51525 17:0.516481 18:0.460073 19:0.504541 20:0.528892 21:0.511829 22:0.520366 
1 10:1 11:0.3482 12:0.155149 13:0.524769 14:0.501866 15:0.508101 16:0.516164 17:0.51659 18:0.456604 19:0.499356 20:0.526473 21:0.513612 22:0.523143 
1 9:1 11:0.348117 12:0.153142 13:0.523143 14:0.523316 15:0.502627 16:0.500984 17:0.497385 18:0.476784 19:0.484551 20:0.478968 21:0.509547 22:0.519552 
1 1:1 11:0.346232 12:0.153142 13:0.502627 14:0.500984 15:0.497385 16:0.476784 17:0.484551 18:0.478968 19:0.509547 20:0.519552 21:0.524757 22:0.522296 
1 7:1 11:0.345362 12:0.153142 13:0.509547 14:0.519552 15:0.524757 16:0.522296 17:0.483352 18:0.46085 19:0.515788 20:0.544285 21:0.498577 22:0.505604 
1 8:1 11:0.34594 12:0.150342 13:0.505601 14:0.515043 15:0.524024 16:0.507888 17:0.499794 18:0.462496 19:0.536869 20:0.50728 21:0.505362 22:0.522328 
1 5:1 11:0.346296 12:0.150342 13:0.50728 14:0.505362 15:0.522328 16:0.509838 17:0.506798 18:0.472462 19:0.499144 20:0.518489 21:0.520803 22:0.530265 
1 6:1 11:0.346305 12:0.152955 13:0.505619 14:0.522119 15:0.510084 16:0.52133 17:0.504806 18:0.450378 19:0.4471 20:0.519675 21:0.540593 22:0.501328 
1 7:1 11:0.344078 12:0.152955 13:0.522119 14:0.510084 15:0.52133 16:0.504806 17:0.450378 18:0.4471 19:0.519675 20:0.540593 21:0.501328 22:0.513239 
1 10:1 11:0.346736 12:0.150763 13:0.529022 14:0.511913 15:0.508084 16:0.510081 17:0.515054 18:0.458323 19:0.498638 20:0.528268 21:0.513092 22:0.522551 
1 5:1 11:0.347969 12:0.152955 13:0.502032 14:0.506685 15:0.521342 16:0.511338 17:0.503628 18:0.450589 19:0.466161 20:0.501591 21:0.522039 22:0.540256 
1 6:1 11:0.346452 12:0.155755 13:0.506685 14:0.521342 15:0.511338 16:0.503628 17:0.450589 18:0.466161 19:0.501591 20:0.522039 21:0.540256 22:0.496295 
1 8:1 11:0.347519 12:0.153328 13:0.514367 14:0.524149 15:0.525852 16:0.504664 17:0.493862 18:0.454104 19:0.531841 20:0.507317 21:0.511439 22:0.525806 
1 7:1 11:0.347962 12:0.151929 13:0.525806 14:0.513875 15:0.51963 16:0.523132 17:0.484803 18:0.460047 19:0.514609 20:0.534199 21:0.507845 22:0.509969 
1 8:1 11:0.354406 12:0.154122 13:0.511332 14:0.516446 15:0.521369 16:0.499459 17:0.491172 18:0.456698 19:0.532429 20:0.507243 21:0.509242 22:0.519575 
1 10:1 11:0.354876 12:0.14955 13:0.51813 14:0.501325 15:0.508209 16:0.513724 17:0.507423 18:0.460035 19:0.499232 20:0.524778 21:0.510013 22:0.50932 
1 5:1 11:0.35422 12:0.14955 13:0.460035 14:0.499232 15:0.524778 16:0.510013 17:0.50932 18:0.475245 19:0.502905 20:0.510532 21:0.512643 22:0.53795 
1 7:1 11:0.353682 12:0.149362 13:0.517178 14:0.503403 15:0.512477 16:0.523902 17:0.482549 18:0.46142 19:0.512901 20:0.535774 21:0.498055 22:0.507369 
1 4:1 11:0.3541 12:0.147542 13:0.531783 14:0.497207 15:0.499208 16:0.514569 17:0.498874 18:0.460225 19:0.512959 20:0.51234 21:0.507917 22:0.51843 
1 5:1 11:0.354571 12:0.147542 13:0.491971 14:0.503701 15:0.521136 16:0.516096 17:0.508772 18:0.468847 19:0.496095 20:0.508436 21:0.507666 22:0.517983 
1 2:1 11:0.352802 12:0.14857 13:0.508436 14:0.507666 15:0.517983 16:0.506439 17:0.493739 18:0.472169 19:0.506665 20:0.527288 21:0.505895 22:0.466877 
1 6:1 11:0.35198 12:0.14857 13:0.493739 14:0.472169 15:0.506665 16:0.527288 17:0.505895 18:0.466877 19:0.490609 20:0.520865 21:0.5156 22:0.462052 
1 10:1 11:0.350512 12:0.149737 13:0.505895 14:0.466877 15:0.490609 16:0.520865 17:0.5156 18:0.462052 19:0.500079 20:0.531164 21:0.495962 22:0.448422 
1 4:1 11:0.348542 12:0.149737 13:0.5156 14:0.462052 15:0.500079 16:0.531164 17:0.495962 18:0.448422 19:0.467775 20:0.512106 21:0.515837 22:0.521883 
1 5:1 11:0.347085 12:0.149737 13:0.462052 14:0.500079 15:0.531164 16:0.495962 17:0.448422 18:0.467775 19:0.512106 20:0.515837 21:0.521883 22:0.540749 
1 2:1 11:0.346975 12:0.149737 13:0.515837 14:0.521883 15:0.540749 16:0.500015 17:0.488495 18:0.469184 19:0.505851 20:0.53427 21:0.531672 22:0.509694 
1 6:1 11:0.349055 12:0.152723 13:0.508963 14:0.526947 15:0.510573 16:0.52298 17:0.501256 18:0.463733 19:0.491157 20:0.529033 21:0.536122 22:0.497961 
1 8:1 11:0.353761 12:0.146983 13:0.512123 14:0.522487 15:0.523643 16:0.500267 17:0.493365 18:0.458785 19:0.529732 20:0.502774 21:0.510248 22:0.522923 
1 5:1 11:0.353556 12:0.146983 13:0.502774 14:0.510248 15:0.522923 16:0.512914 17:0.505376 18:0.461727 19:0.493535 20:0.508156 21:0.511856 22:0.518997 
1 1:1 11:0.353187 12:0.149362 13:0.495285 14:0.496887 15:0.521047 16:0.535377 17:0.477264 18:0.465543 19:0.510764 20:0.517593 21:0.513535 22:0.521049 
1 9:1 11:0.353089 12:0.147963 13:0.51117 14:0.523033 15:0.503707 16:0.494197 17:0.502119 18:0.458748 19:0.459491 20:0.506741 21:0.526953 22:0.518058 
1 10:1 11:0.351344 12:0.147963 13:0.523033 14:0.503707 15:0.494197 16:0.502119 17:0.458748 18:0.459491 19:0.506741 20:0.526953 21:0.518058 22:0.521298 
1 8:1 11:0.353165 12:0.146143 13:0.504485 14:0.51511 15:0.519885 16:0.498954 17:0.492628 18:0.461102 19:0.536191 20:0.506953 21:0.506569 22:0.519201 
1 8:1 11:0.354653 12:0.148336 13:0.507074 14:0.519638 15:0.52354 16:0.501322 17:0.487399 18:0.45501 19:0.534832 20:0.509363 21:0.503971 22:0.520125 
1 9:1 11:0.355155 12:0.142177 13:0.516712 14:0.517113 15:0.491214 16:0.500764 17:0.514784 18:0.471806 19:0.49097 20:0.512096 21:0.518987 22:0.502901 
1 5:1 11:0.353433 12:0.142177 13:0.49097 14:0.512096 15:0.518987 16:0.502901 17:0.501459 18:0.470155 19:0.500559 20:0.500871 21:0.453779 22:0.532012 
1 8:1 11:0.351002 12:0.142177 13:0.502901 14:0.501459 15:0.470155 16:0.500559 17:0.500871 18:0.453779 19:0.532012 20:0.503554 21:0.505981 22:0.517432 
1 5:1 11:0.350325 12:0.142596 13:0.503554 14:0.505981 15:0.517432 16:0.504623 17:0.499908 18:0.469298 19:0.492192 20:0.507854 21:0.522806 22:0.533726 
1 1:1 11:0.34811 12:0.141197 13:0.492192 14:0.507854 15:0.522806 16:0.533726 17:0.47752 18:0.449486 19:0.462526 20:0.506616 21:0.528967 22:0.527781 
1 2:1 11:0.346461 12:0.141197 13:0.507854 14:0.522806 15:0.533726 16:0.47752 17:0.449486 18:0.462526 19:0.506616 20:0.528967 21:0.527781 22:0.500112 
1 1:1 11:0.345354 12:0.141991 13:0.500112 14:0.501805 15:0.516355 16:0.525342 17:0.475009 18:0.453962 19:0.482183 20:0.472028 21:0.504584 22:0.518579 
1 4:1 11:0.336869 12:0.144183 13:0.52165 14:0.483573 15:0.496908 16:0.510096 17:0.484365 18:0.457209 19:0.488956 20:0.465983 21:0.475448 22:0.504292 
1 6:1 11:0.33461 12:0.144183 13:0.496908 14:0.510096 15:0.484365 16:0.457209 17:0.488956 18:0.465983 19:0.475448 20:0.504292 21:0.523535 22:0.475923 
1 1:1 11:0.330853 12:0.157342 13:0.465983 14:0.475448 15:0.504292 16:0.523535 17:0.475923 18:0.458809 19:0.497576 20:0.509773 21:0.517992 22:0.517603 
1 3:1 11:0.329723 12:0.186459 13:0.510211 14:0.527684 15:0.497707 16:0.513395 17:0.500423 18:0.448814 19:0.517522 20:0.535108 21:0.488987 22:0.453841 
1 7:1 11:0.328427 12:0.186459 13:0.500423 14:0.448814 15:0.517522 16:0.535108 17:0.488987 18:0.453841 19:0.505842 20:0.536607 21:0.485746 22:0.461118 
1 1:1 11:0.326885 12:0.186459 13:0.488987 14:0.453841 15:0.505842 16:0.536607 17:0.485746 18:0.461118 19:0.518894 20:0.53187 21:0.529331 22:0.52493 
1 9:1 11:0.328676 12:0.208996 13:0.529331 14:0.52493 15:0.510567 16:0.517171 17:0.509328 18:0.463012 19:0.507716 20:0.517333 21:0.466556 22:0.512199 
1 2:1 11:0.327508 12:0.208996 13:0.517171 14:0.509328 15:0.463012 16:0.507716 17:0.517333 18:0.466556 19:0.512199 20:0.527294 21:0.531217 22:0.51674 
1 8:1 11:0.327175 12:0.208996 13:0.512199 14:0.527294 15:0.531217 16:0.51674 17:0.494327 18:0.453466 19:0.55218 20:0.524015 21:0.52697 22:0.538241 
1 7:1 11:0.331618 12:0.225934 13:0.538241 14:0.519646 15:0.534944 16:0.537577 17:0.490976 18:0.456981 19:0.52461 20:0.555655 21:0.521799 22:0.524409 
1 5:1 11:0.335712 12:0.237692 13:0.521799 14:0.524409 15:0.535212 16:0.527159 17:0.513784 18:0.463713 19:0.506288 20:0.542275 21:0.54107 22:0.556267 
1 2:1 11:0.338633 12:0.246839 13:0.542275 14:0.54107 15:0.556267 16:0.510432 17:0.505457 18:0.466937 19:0.519367 20:0.546739 21:0.555294 22:0.535583 
1 8:1 11:0.380686 12:0.338201 13:0.544039 14:0.563244 15:0.576745 16:0.538607 17:0.510242 18:0.442035 19:0.582167 20:0.549869 21:0.548939 22:0.572926 
1 4:1 11:0.40421 12:0.351546 13:0.597542 14:0.531044 15:0.547326 16:0.57521 17:0.512527 18:0.444604 19:0.568322 20:0.5656 21:0.545015 22:0.56654 
1 5:1 11:0.42033 12:0.356352 13:0.545524 14:0.54991 15:0.568255 16:0.552635 17:0.542107 18:0.474754 19:0.528665 20:0.55174 21:0.575684 22:0.604846 
1 4:1 11:0.450098 12:0.345387 13:0.601866 14:0.53602 15:0.556237 16:0.576243 17:0.538319 18:0.437135 19:0.594068 20:0.55589 21:0.540078 22:0.575153 
1 9:1 11:0.472803 12:0.331015 13:0.564371 14:0.606111 15:0.540142 16:0.527709 17:0.547617 18:0.483536 19:0.524869 20:0.566286 21:0.570087 22:0.52891 
1 4:1 11:0.475524 12:0.331015 13:0.483536 14:0.524869 15:0.566286 16:0.570087 17:0.52891 18:0.44157 19:0.538624 20:0.50093 21:0.485725 22:0.472605 
1 6:1 11:0.476237 12:0.331015 13:0.566286 14:0.570087 15:0.52891 16:0.44157 17:0.538624 18:0.50093 19:0.485725 20:0.472605 21:0.620866 22:0.564693 
1 8:1 11:0.474628 12:0.329195 13:0.52891 14:0.44157 15:0.538624 16:0.50093 17:0.485725 18:0.472605 19:0.620866 20:0.564693 21:0.553634 22:0.554868 
1 7:1 11:0.500647 12:0.329195 13:0.547157 14:0.545701 15:0.559584 16:0.591703 17:0.493915 18:0.436432 19:0.52835 20:0.632169 21:0.548508 22:0.542704 
1 4:1 11:0.540834 12:0.302692 13:0.621314 14:0.523658 15:0.515423 16:0.542373 17:0.501451 18:0.481803 19:0.540054 20:0.564831 21:0.457359 22:0.462093 
1 8:1 11:0.540709 12:0.302692 13:0.501451 14:0.481803 15:0.540054 16:0.564831 17:0.457359 18:0.462093 19:0.606556 20:0.544278 21:0.529327 22:0.532477 
1 10:1 11:0.550649 12:0.262236 13:0.548357 14:0.546304 15:0.468163 16:0.568922 17:0.585598 18:0.432506 19:0.494616 20:0.52544 21:0.53113 22:0.581145 
1 6:1 11:0.559906 12:0.262236 13:0.504979 14:0.529399 15:0.520387 16:0.569432 17:0.489668 18:0.513152 19:0.418193 20:0.554147 21:0.575955 22:0.437246 
1 10:1 11:0.558816 12:0.262236 13:0.489668 14:0.513152 15:0.418193 16:0.554147 17:0.575955 18:0.437246 19:0.517918 20:0.526313 21:0.522834 22:0.574602 
1 9:1 11:0.562443 12:0.248658 13:0.574602 14:0.537675 15:0.538798 16:0.449549 17:0.535179 18:0.508804 19:0.499363 20:0.503528 21:0.546343 22:0.51554 
1 9:1 11:0.573682 12:0.237085 13:0.5476 14:0.535518 15:0.53075 16:0.443194 17:0.533578 18:0.503829 19:0.495116 20:0.509949 21:0.533849 22:0.514627 
1 2:1 11:0.576227 12:0.228313 13:0.434905 14:0.571103 15:0.596184 16:0.49329 17:0.45416 18:0.484416 19:0.494567 20:0.537546 21:0.534311 22:0.539162 
1 2:1 11:0.577394 12:0.225514 13:0.452759 14:0.544373 15:0.58782 16:0.499441 17:0.452148 18:0.47904 19:0.494449 20:0.52451 21:0.468024 22:0.535513 
1 5:1 11:0.576545 12:0.225514 13:0.499441 14:0.452148 15:0.47904 16:0.494449 17:0.52451 18:0.468024 19:0.535513 20:0.457309 21:0.553907 22:0.591189 
1 8:1 11:0.57855 12:0.225514 13:0.521651 14:0.543995 15:0.539369 16:0.526527 17:0.433285 18:0.451834 19:0.474515 20:0.510808 21:0.518149 22:0.534476 
1 9:1 11:0.577754 12:0.225514 13:0.543995 14:0.539369 15:0.526527 16:0.433285 17:0.451834 18:0.474515 19:0.510808 20:0.518149 21:0.534476 22:0.510172 
1 5:1 11:0.57786 12:0.225514 13:0.510808 14:0.518149 15:0.534476 16:0.510172 17:0.518365 18:0.456413 19:0.519907 20:0.460619 21:0.560231 22:0.60395 
1 4:1 11:0.582199 12:0.223321 13:0.58651 14:0.478776 15:0.49622 16:0.528872 17:0.483901 18:0.461895 19:0.520891 20:0.551896 21:0.427315 22:0.471758 
1 8:1 11:0.580817 12:0.222528 13:0.483901 14:0.461895 15:0.520891 16:0.551896 17:0.427315 18:0.471758 19:0.585168 20:0.503031 21:0.498905 22:0.531465 
1 10:1 11:0.584319 12:0.222528 13:0.529228 14:0.525212 15:0.442083 16:0.56787 17:0.549982 18:0.431628 19:0.480894 20:0.534336 21:0.52176 22:0.544493 
1 6:1 11:0.583792 12:0.222528 13:0.480894 14:0.534336 15:0.52176 16:0.544493 17:0.468728 18:0.471854 19:0.382611 20:0.425088 21:0.494629 22:0.535491 
1 7:1 11:0.580792 12:0.222528 13:0.534336 14:0.52176 15:0.544493 16:0.468728 17:0.471854 18:0.382611 19:0.425088 20:0.494629 21:0.535491 22:0.512096 
1 8:1 11:0.578805 12:0.222528 13:0.52176 14:0.544493 15:0.468728 16:0.471854 17:0.382611 18:0.425088 19:0.494629 20:0.535491 21:0.512096 22:0.532864 
1 9:1 11:0.578498 12:0.222528 13:0.544493 14:0.468728 15:0.471854 16:0.382611 17:0.425088 18:0.494629 19:0.535491 20:0.512096 21:0.532864 22:0.511024 
1 10:1 11:0.581686 12:0.219728 13:0.537673 14:0.54808 15:0.445473 16:0.570885 17:0.555971 18:0.418931 19:0.481949 20:0.517904 21:0.515447 22:0.547761 
1 5:1 11:0.589823 12:0.207363 13:0.481864 14:0.485112 15:0.528728 16:0.506077 17:0.507939 18:0.461568 19:0.521249 20:0.45088 21:0.558839 22:0.56172 
1 2:1 11:0.589273 12:0.207363 13:0.45088 14:0.558839 15:0.56172 16:0.485591 17:0.467511 18:0.482328 19:0.490473 20:0.533837 21:0.535502 22:0.533369 
1 2:1 11:0.590729 12:0.205589 13:0.440184 14:0.55449 15:0.565744 16:0.476156 17:0.455224 18:0.492441 19:0.484743 20:0.525563 21:0.528252 22:0.541933 
1 10:1 11:0.589999 12:0.205589 13:0.528252 14:0.541933 15:0.43931 16:0.53583 17:0.544178 18:0.428088 19:0.487003 20:0.528631 21:0.510753 22:0.527413 
1 7:1 11:0.588196 12:0.201203 13:0.528631 14:0.510753 15:0.527413 16:0.524536 17:0.479542 18:0.417653 19:0.526444 20:0.567952 21:0.502273 22:0.487927 
1 3:1 11:0.588234 12:0.201203 13:0.526444 14:0.567952 15:0.502273 16:0.487927 17:0.501768 18:0.459161 19:0.497117 20:0.534334 21:0.53311 22:0.457521 
1 9:1 11:0.587991 12:0.201203 13:0.497117 14:0.534334 15:0.53311 16:0.457521 17:0.525521 18:0.486094 19:0.487596 20:0.514563 21:0.490779 22:0.459687 
1 3:1 11:0.586158 12:0.201391 13:0.525521 14:0.486094 15:0.487596 16:0.514563 17:0.490779 18:0.459687 19:0.511874 20:0.535883 21:0.530996 22:0.424165 
1 8:1 11:0.584765 12:0.201391 13:0.459687 14:0.511874 15:0.535883 16:0.530996 17:0.424165 18:0.475503 19:0.579 20:0.502207 21:0.481672 22:0.521842 
1 6:1 11:0.586271 12:0.201391 13:0.481672 14:0.521842 15:0.517239 16:0.5328 17:0.475819 18:0.510807 19:0.400207 20:0.474043 21:0.573124 22:0.496761 
1 8:1 11:0.582904 12:0.201391 13:0.517239 14:0.5328 15:0.475819 16:0.510807 17:0.400207 18:0.474043 19:0.573124 20:0.496761 21:0.489909 22:0.536167 
1 5:1 11:0.583108 12:0.201391 13:0.496761 14:0.489909 15:0.536167 16:0.506383 17:0.50744 18:0.450024 19:0.533096 20:0.45415 21:0.549578 22:0.573251 
1 7:1 11:0.584462 12:0.198403 13:0.518207 14:0.515415 15:0.51914 16:0.523175 17:0.481629 18:0.423627 19:0.440629 20:0.565907 21:0.507571 22:0.505253 
1 8:1 11:0.582861 12:0.198403 13:0.515415 14:0.51914 15:0.523175 16:0.481629 17:0.423627 18:0.440629 19:0.565907 20:0.507571 21:0.505253 22:0.5181 
1 6:1 11:0.585008 12:0.198403 13:0.488962 14:0.50635 15:0.50271 16:0.531846 17:0.46688 18:0.510717 19:0.416949 20:0.536123 21:0.56152 22:0.496757 
1 6:1 11:0.583446 12:0.169893 13:0.480877 14:0.520794 15:0.491056 16:0.520974 17:0.462629 18:0.520489 19:0.416652 20:0.533305 21:0.55855 22:0.499458 
1 3:1 11:0.580345 12:0.169893 13:0.533305 14:0.55855 15:0.499458 16:0.479189 17:0.483041 18:0.452207 19:0.497093 20:0.536643 21:0.534497 22:0.43867 
1 5:1 11:0.577477 12:0.163921 13:0.486184 14:0.481183 15:0.509821 16:0.499566 17:0.500766 18:0.452968 19:0.511094 20:0.457237 21:0.529454 22:0.531497 
1 10:1 11:0.575741 12:0.163921 13:0.452968 14:0.511094 15:0.457237 16:0.529454 17:0.531497 18:0.43586 19:0.487508 20:0.505379 21:0.476486 22:0.471081 
1 4:1 11:0.573577 12:0.163921 13:0.531497 14:0.43586 15:0.487508 16:0.505379 17:0.476486 18:0.471081 19:0.510577 20:0.496184 21:0.426446 22:0.501002 
1 7:1 11:0.57141 12:0.163921 13:0.505379 14:0.476486 15:0.471081 16:0.510577 17:0.496184 18:0.426446 19:0.501002 20:0.544904 21:0.499401 22:0.486789 
1 6:1 11:0.569418 12:0.158508 13:0.486789 14:0.498526 15:0.490796 16:0.517643 17:0.46803 18:0.477557 19:0.410211 20:0.494623 21:0.543599 22:0.495202 
1 7:1 11:0.567032 12:0.158508 13:0.498526 14:0.490796 15:0.517643 16:0.46803 17:0.477557 18:0.410211 19:0.494623 20:0.543599 21:0.495202 22:0.486139 
1 7:1 11:0.56467 12:0.161121 13:0.520399 14:0.491272 15:0.52439 16:0.51023 17:0.484472 18:0.42711 19:0.490722 20:0.545009 21:0.496895 22:0.489551 
1 3:1 11:0.56194 12:0.161121 13:0.51142 14:0.545765 15:0.501024 16:0.488738 17:0.472345 18:0.458973 19:0.51046 20:0.522209 21:0.526484 22:0.446356 
1 9:1 11:0.560483 12:0.163501 13:0.52269 14:0.519745 15:0.517433 16:0.449731 17:0.510665 18:0.483751 19:0.495313 20:0.468674 21:0.469814 22:0.490656 
1 2:1 11:0.558286 12:0.162895 13:0.449731 14:0.510665 15:0.483751 16:0.495313 17:0.468674 18:0.469814 19:0.490656 20:0.529881 21:0.521029 22:0.518717 
